nep4 4 Cu C O H 
cutoff 8 4 106 23
n_max 4 4
basis_size 12 12
l_max 4 2 0
ANN 30 0
 -4.3079462e-02
  1.0277025e-01
  5.1878788e-02
  3.2310486e-02
  4.2129889e-02
 -6.9075264e-02
  1.7248762e-01
  9.4748572e-02
  1.2959126e-02
  7.8252681e-02
  1.1451667e-01
  9.6000053e-02
 -5.7560116e-02
  4.0408049e-02
 -1.1569639e-01
  1.2535277e-02
 -8.3631441e-02
  5.8375612e-02
  3.0025465e-02
  7.4634455e-02
  5.8166392e-02
  1.5152286e-02
  1.2007112e-02
 -3.8597826e-02
  4.9764693e-02
 -3.8784776e-02
 -7.2602116e-02
  1.0183780e-01
  5.6414366e-02
 -5.0614443e-02
 -7.3260397e-02
 -8.1523292e-04
  2.2170091e-01
 -2.1834698e-01
 -4.5429885e-02
  1.8526446e-02
  1.1828405e-01
  1.0003960e-01
 -1.6801602e-03
 -4.7684475e-03
 -1.5139478e-01
  4.1107066e-02
 -2.3255073e-01
  3.4116611e-02
 -5.1832300e-02
 -1.7642647e-02
 -7.9973631e-02
  4.0590871e-02
  1.0893089e-01
  3.5197733e-03
 -3.0349245e-02
 -2.2236956e-02
 -2.0546855e-01
 -9.4009358e-03
  1.0202692e-01
 -7.4825268e-03
  2.6667451e-02
  1.1732503e-02
 -4.9250271e-02
  1.6207317e-02
 -1.0808793e+00
 -6.4740282e-01
 -2.6682892e+00
 -4.0799686e-01
 -1.0378389e-01
  1.8887872e-01
 -1.7348560e-02
  1.5771904e+00
  5.4255821e-02
  1.3632046e+00
  1.0546538e+00
  1.5048834e+00
  1.6634598e+00
 -7.2494727e-01
  4.2998299e-01
  1.1563013e+00
  1.1857719e+00
  1.2372874e+00
 -2.3620394e-01
  5.7035197e-02
  1.1088096e+00
  9.8340625e-01
  5.3464973e-01
  1.3454987e-01
  9.1600649e-02
 -2.1993106e-02
  3.4452256e-02
  9.8008707e-02
  2.5811926e-01
 -1.8759495e-01
  6.7664623e-01
 -3.7596095e-02
 -2.5935857e-02
 -6.2256712e-02
  9.5784523e-02
 -3.4542065e-02
 -3.2968199e-01
  1.3573913e-02
 -1.8502001e-02
  3.6165945e-02
 -1.0837882e-01
 -1.3830243e-01
  2.3764336e-02
 -5.7021402e-02
  2.7254708e-03
 -4.8467383e-02
 -1.9552760e-01
 -1.1532410e-02
  2.6390929e-02
  2.0193947e-02
  1.0122802e-01
 -1.3529772e-01
 -3.5403453e-02
 -2.4870129e-02
  1.8155819e-01
  1.8638963e-01
  1.2800692e-01
 -2.3152462e-01
 -9.4586365e-02
 -2.9334468e-01
 -4.7564986e-01
 -4.9960887e-01
  2.8357938e-02
 -5.3754307e-02
 -1.4437765e-01
  9.2145398e-02
 -5.2713096e-02
  9.9380828e-02
 -5.2081116e-02
  9.4897009e-02
  1.2900734e-01
 -4.3907832e-02
 -6.3947864e-02
 -2.5410918e-03
 -2.6068884e-01
 -6.5669306e-02
 -6.5447313e-01
  3.4198847e-02
 -2.1471418e-01
 -8.1731379e-02
  1.3839245e-01
 -4.7545370e-02
  6.0641415e-02
  1.0088528e-01
  1.2356374e-02
  1.2765250e-01
  1.3038905e-01
  6.1726689e-02
  1.0812112e+00
  1.1907608e-02
  2.7768177e-01
 -1.4890076e-01
 -2.2628592e-01
 -5.1962258e-03
 -6.3669688e-01
  3.0398691e-01
 -1.1511214e-01
  9.3588769e-01
  1.8042849e-01
  1.1216261e+00
  6.7546368e-01
  1.1723811e-01
  4.9141780e-01
 -6.1723644e-01
  9.5109290e-01
  6.3799518e-01
  1.0911233e-02
  5.5551857e-01
  1.9006386e-02
  1.8451499e+00
  3.1278616e-01
  1.2820704e-01
  8.3900638e-02
  1.5597486e-02
  4.6424362e-01
 -1.1141080e-01
  6.4953971e-03
 -3.3585563e-02
 -5.1203202e-03
 -2.6952213e-01
  6.5184638e-02
  1.3107103e-01
  5.4392435e-02
  7.6193660e-02
  3.5983641e-03
 -1.5868804e-01
 -6.4549983e-02
  2.0195380e-01
  2.6424939e-02
  3.5670485e-02
  7.1471535e-02
 -1.0932849e-01
  3.3935286e-02
  1.1590515e-02
  2.8132604e-02
 -1.6195548e-01
 -1.9882901e-01
  1.4603575e-01
 -1.7051238e-01
 -6.3562505e-02
 -1.2545028e-01
  5.2615054e-02
  1.8517077e-01
  3.2049425e-02
 -2.4056740e-02
  6.2589675e-02
  9.1769800e-02
  2.5874810e-02
  6.6328063e-03
  3.3112723e-02
  1.2333632e-01
  1.1107571e-02
 -1.0826102e-01
 -5.1362050e-01
 -1.5170932e-01
  2.9200042e-02
 -1.9622204e-01
 -1.3412999e-02
 -5.6712376e-04
  4.1839585e-02
 -1.2257764e-01
  4.5383396e-03
 -9.4159264e-03
  1.3639890e-02
 -1.7352097e-01
  1.0356919e-01
 -2.5078651e-01
  1.1029749e-01
 -2.3547260e-01
 -5.9705120e-02
 -2.5978696e-02
  1.6686656e-01
 -1.9717144e-02
 -8.2782712e-03
  1.4137053e-01
 -1.3161399e-02
 -6.4773383e-03
  2.4175039e-02
 -2.4549289e-02
 -1.2458557e-01
 -1.1553697e-02
  1.8223841e-01
  1.1669888e-01
  1.7321965e-01
 -3.4258328e-02
 -1.0927602e-01
  1.0530581e-01
  3.4259740e-02
 -1.0414704e-01
 -9.1972724e-02
  7.3977992e-02
 -7.8085408e-02
 -1.6187313e-01
 -4.8614696e-02
 -1.2565812e-03
  3.0214116e-03
 -7.9792045e-02
  2.4034027e-02
 -5.0133836e-02
 -7.0162311e-02
 -1.1359271e-01
  1.2977420e-01
 -8.7213837e-02
  5.8994383e-01
 -1.1111327e-02
  6.5046892e-02
 -5.3750325e-02
  1.3239983e-02
  3.4982376e-04
  3.7407819e-03
  2.7783523e+00
  2.1648806e-01
 -3.9051387e-01
 -4.7076892e-02
  2.6325662e-02
 -2.0368353e-02
 -4.2023916e-02
 -5.2217599e-02
  1.1642199e-01
  1.1308899e-01
 -3.2644938e-03
 -6.5633461e-02
 -4.0675350e-02
  2.9123269e-03
  1.9836904e-02
  1.1419405e-01
  7.4898332e-01
  2.2304836e-01
  6.1046820e-02
  7.2776787e-02
  3.6345374e-02
  6.4850599e-02
 -6.1884485e-02
 -2.2599550e-02
  5.5772442e-02
  2.4643918e-02
  1.5562478e-02
  1.3715409e-01
  1.7779265e-03
 -3.1549182e-02
 -6.8702516e-03
 -6.4742573e-02
  3.8620189e-03
 -1.1453945e-01
 -7.0691526e-02
 -5.6418258e-04
  9.2042655e-02
 -3.0131536e-02
 -8.9966439e-02
  3.1690837e-03
 -2.1733284e-02
 -7.4047884e-03
 -9.2011742e-02
 -8.6399494e-03
  8.2439044e-03
  3.1699580e-01
  6.2630467e-02
  6.7043073e-02
  1.1790022e-01
 -6.3003317e-02
  4.4884998e-02
 -1.1545359e-01
  2.3086297e-03
 -1.3961594e-02
 -1.9625075e-01
  2.9027985e-02
 -2.2804908e-02
  1.4113467e-02
 -1.9093648e-02
  1.5640622e-02
 -5.2122742e-01
  1.2120772e-04
 -1.9150106e-02
 -4.0339217e-02
  4.3650091e-01
 -7.5694954e-01
  3.0629352e-01
 -1.1428328e+00
 -1.6196901e-02
 -6.9475037e-01
 -9.7685468e-01
 -5.7417125e-02
 -1.4838905e+00
  5.1450545e-01
 -2.5560427e-01
 -1.5566409e+00
  2.9809415e-01
 -1.1587762e+00
  2.3924004e-02
 -2.9826617e-02
 -1.1545141e+00
 -2.5522041e-01
 -5.7926899e-01
 -6.0361147e-01
 -1.6176657e-01
  1.1694384e-01
 -1.3370286e-01
 -1.7746572e-01
  6.7121726e-03
  2.2784732e-01
 -7.2248846e-02
 -2.8095508e-01
  4.0315185e-02
  8.7714851e-02
 -6.5559171e-02
 -1.5145469e-01
  5.4512244e-02
  4.7628158e-01
 -1.4319482e-01
 -6.0111329e-02
 -1.0618336e-01
 -3.8205627e-02
 -1.6211365e-01
 -3.8916108e-03
  3.4857221e-02
 -5.6301903e-02
  1.2549624e-01
  6.4264819e-02
 -7.6813854e-02
  1.0199257e-02
  1.5882029e-01
  2.5536155e-02
  1.2719633e-01
  4.8640084e-02
  4.1222662e-02
 -6.9839210e-04
 -1.4370075e-01
  6.7198932e-02
 -1.0683682e-01
  4.4147424e-02
 -2.0629387e-02
 -3.2510582e-01
  6.2058087e-02
 -4.5510612e-02
 -2.3640871e-02
 -1.2008057e-02
  3.8362488e-01
  9.0013988e-02
 -2.2341387e-01
 -3.4662819e-01
 -4.5135044e-02
  1.9623840e-01
  1.9899672e-02
  2.4121246e-01
  5.0752449e-01
 -1.8414798e-01
  2.1861194e-01
 -4.7761470e-01
  3.4587994e-01
  5.3898577e-02
 -1.1360649e-02
 -3.2596178e-02
 -7.8157231e-02
  1.4807756e-02
 -6.2386721e-02
 -7.2120707e-03
 -2.5149001e-02
 -3.1623811e-02
 -3.3093300e-02
 -6.5369412e-02
 -2.1808906e+00
 -1.2240228e-01
  8.6074311e-01
 -6.2984630e-02
 -3.3149129e-01
 -1.4380759e-02
 -5.4185309e-02
  1.7878104e-02
 -2.9359572e-02
  2.1855988e-01
  3.0308419e-01
  2.9192823e-01
 -8.8855065e-02
 -1.3077419e-01
  1.3924483e-02
 -1.4664853e-01
 -1.4973765e-02
 -7.5660073e-03
  6.5175369e-03
  1.9486712e-01
 -7.3946476e-02
  2.3404294e-01
  6.0813207e-02
 -1.5271729e-01
  2.4919219e-01
 -2.0352055e-01
 -2.6559329e-02
 -4.7726218e-02
  9.1552939e-03
  2.6558368e-02
  9.6978567e-04
  1.3369175e-02
  1.3308348e-01
  1.3758689e-01
  6.6528248e-04
  4.0706712e-01
  9.1410324e-02
  2.9784983e-02
  3.0826511e-02
 -5.3628236e-03
 -8.6518072e-02
 -4.5618419e-02
  3.4854271e-02
  1.2550740e-01
 -7.7124707e-02
 -1.6497452e-02
  9.3954600e-02
 -9.0857200e-02
 -1.3043370e-02
  1.0491045e-01
  1.4471230e-01
  9.8944478e-02
  6.4994849e-02
 -5.1855169e-02
 -1.0683037e-01
  3.7793279e-02
  3.9942029e-01
  1.2703924e-01
  4.0125203e-01
 -1.3760344e-02
  6.7712480e-01
  1.1179747e-02
  9.0943301e-01
 -8.3867282e-02
 -1.2980006e-02
 -1.1013162e+00
 -5.7260040e-03
 -1.3630195e-01
  9.0402439e-03
 -1.5816897e-02
 -3.3571813e-02
 -8.6108553e-01
 -2.6175520e-01
 -6.8270430e-02
 -1.2517841e+00
  3.1719074e-01
 -3.5192195e-01
  4.2063795e-02
  6.0111620e-02
  1.3871962e-01
 -4.7042564e-02
  1.4164364e-01
 -7.0514090e-02
  5.4640502e-02
 -1.0666227e-01
  3.7044335e-02
 -9.8312676e-02
  1.6757658e-01
 -4.0525224e-02
 -2.6548734e-02
  3.3204338e-01
 -2.2683096e-01
 -1.8628977e-01
 -5.0436314e-03
 -1.6386691e-02
 -3.0248724e-02
 -6.1367434e-02
  5.6583073e-02
  2.5630865e-02
 -9.2246890e-02
  7.8271158e-02
 -2.3617117e-01
 -2.8919029e-01
  7.9698607e-02
 -1.3642240e-02
  3.0577034e-01
 -9.1201730e-02
  6.6575743e-02
  3.0390019e-02
  5.9839025e-02
  8.3998464e-02
  3.6873040e-01
 -5.1090483e-02
 -2.6748477e-02
  3.7299044e-02
  1.4902829e-02
  1.4100559e-01
  3.3710469e-02
 -1.7313509e-01
 -7.2947875e-02
  5.2023627e-02
  2.4429691e-01
  2.8742271e-02
 -1.1187381e-01
 -1.8883571e-02
 -6.2943108e-02
 -1.3347556e-01
 -8.0529168e-02
 -2.2560894e-01
 -4.5129033e-03
  9.5275976e-04
  9.3621612e-02
 -1.0226151e-01
  7.0804760e-02
 -2.3439808e-02
  3.3874411e-02
  1.9912089e-01
 -3.1936940e-02
 -1.1650324e-02
 -8.6112909e-02
 -1.8922444e-01
  1.6098306e-01
 -1.4878799e-01
  1.6135205e-01
  8.9433111e-02
  1.1940657e-01
 -1.9225644e-02
 -6.7548782e-02
 -2.9833935e-04
 -3.7370771e-02
 -1.8347753e+00
  2.9124167e-02
  6.0427743e-01
  2.7640280e-01
 -2.2897255e-01
  5.1053587e-02
  3.3013310e-02
 -2.8251549e-03
  9.6661814e-02
 -2.1355166e+00
  4.4381618e-02
 -3.0972546e-02
  3.4495365e-02
  8.6542360e-02
  1.8648683e-01
 -6.7231275e-02
  1.3318588e-01
 -8.7081969e-02
  1.9345593e-01
 -6.5707147e-02
 -3.6462091e-02
  1.4669217e-01
 -1.3540615e-01
 -2.3409115e-02
 -2.1612546e-01
  5.2284047e-02
 -3.3805661e-02
  3.0652542e-02
  9.6327744e-02
  4.1431773e-02
 -4.9275592e-02
 -7.7126004e-02
  1.7066310e-01
 -3.2824647e-02
 -2.1590506e-01
  3.3184466e-01
 -3.2765504e-02
 -1.9396873e-02
  2.7166775e-01
 -6.1370593e-02
  1.6719621e-01
 -1.7014961e-01
  7.1896978e-02
  1.0726132e-01
 -1.1648280e-01
  1.8742861e-01
 -4.3927334e-02
 -2.9663216e-02
  4.3297078e-02
 -7.2600890e-04
 -3.2254785e-02
  3.4856223e-02
  1.1236034e-01
 -1.6153823e-01
 -1.9834475e-01
 -1.7772561e-01
 -6.7383900e-02
  2.2671723e-01
  3.4049200e-03
 -3.8298938e-02
  7.7793546e-02
  1.5037522e-01
  2.7768768e-02
 -2.1765497e-01
  5.5574235e-02
 -1.6356689e-01
 -3.3031646e-02
  1.6200346e-01
  1.0927403e+00
  3.3409968e-01
  7.3907645e-03
 -1.7434758e-01
  1.2420075e-01
 -3.7582930e-02
  2.0864408e-01
 -9.0112716e-02
  3.8221937e-02
 -6.8835512e-02
  3.9514997e-03
  2.3771051e-01
  5.5151034e-02
 -4.8680089e-02
  3.1393260e-02
 -4.3837592e-02
 -1.8504839e-02
 -1.9159277e-01
  1.5236376e-02
  1.0220318e-01
  4.3394987e-02
 -9.7576447e-02
 -5.9763759e-01
 -1.3611910e-01
  3.7441316e-01
 -2.6283488e-02
 -2.2627017e-01
 -7.4077621e-02
  1.3965274e-01
  2.4758189e-03
  5.0666064e-02
 -4.5121595e-02
 -1.2401249e-01
  8.9127816e-02
  1.3751170e-02
 -1.3445451e-02
  3.6809482e-02
 -2.3138044e-02
 -9.8583832e-02
 -6.4889707e-02
  1.0305338e-01
  1.0516299e-01
 -5.7799440e-02
 -8.1156962e-02
 -3.1814311e-02
 -3.4275617e-02
 -1.7588456e-01
 -3.8473234e-02
  1.1973601e-01
  4.2464934e-02
 -5.3043693e-02
  5.9409462e-02
  8.1214774e-03
  3.1674027e-02
  1.0324795e-02
 -7.1637161e-02
  2.1005136e-01
  8.3228843e-03
 -1.1170713e-01
  3.1801060e-02
 -1.4640443e-01
  1.3521625e-02
  3.3185910e-02
 -4.1081093e-02
  5.2114637e-03
 -8.2496092e-02
 -7.4381217e-02
  1.0771142e-02
 -7.4011660e-03
  1.2576294e-02
  6.3059911e-02
  4.9661461e-02
 -1.1012263e-01
 -4.8272252e-02
  7.3406100e-02
 -3.2111175e-02
  8.5252628e-02
 -7.0991656e-03
  1.0731444e-03
  1.7853076e-02
 -5.1193994e-02
 -3.2613840e-02
  9.0148300e-02
 -9.7730950e-02
  6.2795423e-02
 -4.5499381e-02
 -3.1410155e-01
  3.0482581e-01
  3.0549568e-01
  4.0803882e-03
 -3.1726163e-02
  4.8486371e-02
 -2.0305255e-01
  5.1883750e-02
 -1.9192958e-03
  6.1423406e-02
 -1.6261671e-01
  4.6863928e-02
  2.7621040e-02
 -3.4788843e-02
 -1.4139436e-01
  6.2478416e-02
 -2.2511996e-01
 -4.0567458e-02
 -1.1134793e-01
  7.7863999e-02
 -1.1706546e-02
  3.4498576e-02
 -6.7105860e-02
 -1.6486663e-01
 -1.8780443e-01
  1.4282359e-01
  2.4555178e-02
 -7.9475772e-03
  9.6695915e-02
  5.3608399e-02
  5.8394708e-02
  1.6098748e-01
 -5.1913790e-02
  3.7931900e-02
 -5.4161221e-02
  3.3637017e-01
 -1.6488796e-01
 -2.9575627e-02
  5.6122463e-02
 -3.4643691e-02
 -3.0427115e-02
  2.2676418e-02
 -1.1403942e-02
  3.7114365e-05
  1.8436719e-01
  8.5895494e-02
 -1.2688750e-01
  4.0314723e-02
  3.7975658e-02
  8.9975655e-02
 -1.5752710e-01
  7.3334272e-04
 -4.8005741e-02
  2.8273245e-02
 -1.6241434e-01
 -9.6398503e-02
  1.2920147e-02
 -1.0195467e-01
 -5.3140618e-02
 -5.2219924e-02
 -6.1613517e-03
  6.5894462e-03
  6.7655690e-02
  1.8296413e-02
  9.2448033e-02
 -1.7234398e-02
  9.3530968e-02
 -3.6976993e-02
 -8.5293487e-02
 -4.6604127e-02
 -3.7206665e-02
  9.7138425e-03
 -2.5483409e-02
  4.1649960e-02
  2.8375480e-03
  1.2280194e-01
 -8.4014036e-02
 -3.3540014e-02
 -1.2222356e-01
  2.5073465e-02
  1.2923574e-02
 -5.7462055e-02
 -5.6199055e-02
 -1.1540915e-01
 -1.2358248e-01
  2.5253862e-02
 -7.6561481e-02
 -1.1427341e-01
 -1.2077014e-01
 -1.2038074e-01
  1.2238306e-02
  1.4005002e+00
  2.8796455e-01
  4.1860124e-01
  7.9833865e-02
  2.0497549e-01
  4.0966440e-03
  3.1142708e-02
  8.9180343e-02
  2.9336607e-02
 -4.6859752e-02
 -1.4778763e-02
 -1.3297139e-01
  6.5636843e-02
 -9.5949978e-02
 -7.1834378e-02
  1.2698643e-01
  3.5965152e-02
  4.8597302e-02
 -1.3387905e-01
  1.0694099e-01
  3.1418689e-02
 -9.9511035e-02
 -3.7697714e-02
 -2.4268134e-01
 -5.9540797e-02
  1.4290543e-01
  8.7672301e-02
 -6.2777333e-02
 -5.3821621e-03
 -3.8949613e-02
  6.9554560e-02
 -1.0929377e-01
  7.3733943e-04
  1.1764652e-01
  5.1178825e-01
  1.8711068e-02
 -1.1881488e-01
  5.0967480e-03
 -3.6321160e-01
  9.5309289e-03
  3.0082968e-01
  2.8928613e-02
 -1.5880546e-02
 -3.3318019e-01
  7.8736857e-02
  2.1878865e-01
 -6.4182177e-02
 -4.2893682e-03
 -2.0709370e-01
  3.4245521e-02
 -9.2816710e-02
 -1.1984792e-01
 -4.2430166e-02
 -3.8640793e-02
  7.2694026e-02
 -2.6285321e-02
  1.7366034e-01
  6.4498119e-02
 -3.5022300e-02
  2.2731628e-02
 -1.5008673e-01
  1.8222053e-01
  2.9669145e-01
 -1.2756988e-01
  6.6768564e-02
  4.1042455e-02
  3.8665045e-02
  1.8162623e-02
 -7.8513719e-02
  1.4586552e-02
  1.6585162e-02
 -5.2566987e-02
  2.5894553e-03
 -1.3323357e-02
 -1.0327962e-04
 -1.4841607e-01
 -6.6333652e-02
 -1.7895205e-02
 -1.2270092e-01
  1.2465190e-01
 -5.0182041e-02
  1.7268318e-01
  7.5949416e-03
 -9.2493765e-02
  5.8523500e-03
  7.3817946e-02
  3.3298459e-02
  9.7484112e-01
  1.6392897e+00
 -7.2594188e-02
  7.1636510e-01
 -9.6209563e-02
 -4.8670705e-02
  1.8051596e-02
 -8.4921682e-01
  5.8920525e-02
 -7.3176694e-01
 -9.4650322e-01
  3.1774947e-01
  2.3197596e+00
  2.0180229e-02
 -6.1030533e-02
  2.4072601e-02
 -5.2101441e-02
  1.5584627e+00
 -7.5659439e-02
  3.7853699e-02
 -4.7895092e-01
  9.0653993e-02
 -9.5636082e-01
 -2.1884013e-04
 -3.4979895e-01
 -1.7988048e-02
  4.5045380e-02
  1.2469240e+00
 -1.1230432e-02
  1.5239503e-02
  1.9692237e+00
 -3.7204847e-01
 -1.5342528e-01
  1.6388335e+00
  1.3040516e-01
  2.1020476e-02
 -1.8284251e-01
  3.1304964e-01
 -4.7378037e-02
 -2.1310606e+00
  2.7944441e-03
 -4.9671286e-01
  5.5572838e-01
  3.2350767e-02
  1.5137836e-01
  2.3741630e-01
  1.2140466e-01
 -9.4058019e-01
 -2.6585275e-02
  3.5394359e-01
 -6.6657537e-01
  8.6854644e-02
 -5.6274694e-01
  7.9157362e-03
 -4.4624582e-02
 -2.0864328e-02
  7.3981047e-01
  5.7138585e-02
  7.8263976e-02
 -1.7396200e-01
 -2.4178255e-01
  9.0182506e-02
  2.4021783e-01
 -1.5947986e-01
 -4.5393109e-03
  2.5091555e-03
  8.2598019e-01
 -4.7418784e-02
 -3.7175307e-01
  1.0870110e-01
  5.6098469e-02
 -2.5747463e-01
  6.9375858e-02
 -1.5230951e+00
  2.2413516e+00
 -6.4799958e-01
  2.8155935e-01
 -1.9639943e-02
 -3.3466515e-01
  1.1801060e+00
  2.9973270e-02
 -7.5325555e-01
 -8.4703100e-01
  4.6387419e-02
 -1.5988045e+00
  5.2416556e-02
  1.7094807e-01
  9.1444397e-01
  2.3829240e-02
 -9.4294131e-02
 -9.5415018e-02
  1.3031453e-01
  1.5270242e-01
  2.4141436e+00
  1.9775322e-01
  1.6834247e-01
  3.0156335e-01
  1.3054081e+00
 -3.8708958e-01
  1.6919683e-01
 -3.5360724e-01
  5.4039568e-01
  3.3630919e-02
  8.9089841e-01
  1.9558345e-01
  2.5525135e-01
 -2.3710954e-01
  8.1700850e-03
 -2.1207664e+00
 -5.3113323e-01
 -3.9900050e-01
 -4.3232733e-01
  1.5354940e-01
  3.1454679e-01
  5.0674284e-01
 -3.8093630e-02
 -1.2399541e-01
 -1.2263826e-01
 -3.7553571e-02
  3.5943035e-02
  9.8910481e-02
 -2.1411105e-01
 -1.5005322e-01
 -3.4011248e-03
  9.4823018e-02
 -2.0838726e-02
  4.0635459e-02
 -9.4574736e-04
 -5.7088785e-02
  3.4157682e-02
 -3.8740370e-02
  1.0117365e-01
 -1.2454019e-01
 -1.5234259e-02
 -1.3839992e-02
  3.1515819e-01
  1.6323136e-02
 -1.5296087e-02
  7.3232241e-02
  4.4267565e-02
  8.8758782e-02
  5.2761208e-02
  2.7540967e-01
 -1.9086254e-01
 -4.0280338e-02
  9.8671287e-02
 -3.4662869e-02
 -4.0740483e-02
 -1.0432880e-01
  1.9971805e-02
 -8.7269746e-02
 -8.8219764e-03
  5.2476877e-01
 -5.5544168e-01
  1.0857806e+00
 -1.6013296e+00
  1.1075578e+00
 -8.2809277e-02
 -1.7950659e+00
  7.3526055e-01
  4.3739668e-01
  7.7496320e-01
 -1.0848221e+00
 -8.2649535e-01
  2.7514851e-02
  3.9212439e-02
 -2.4900565e-01
 -3.1175911e-01
  5.7634126e-02
  7.8788686e-01
  7.8335500e-01
  1.5890390e-01
  1.0342121e+00
 -7.3306737e-03
  2.4370164e-01
 -4.1081961e-02
 -1.7046441e-01
  1.7039981e-01
 -1.0497276e-01
 -6.0910720e-02
 -9.9266820e-02
 -6.3751243e-02
  7.5525098e-02
  6.7167250e-03
  2.1528970e-01
 -8.3983138e-02
 -1.0931281e-01
  9.1706283e-02
 -5.9127253e-02
  1.0522719e-01
 -2.9188421e-02
  3.1983167e-02
  2.4759673e-02
  1.8309979e-02
 -1.7626190e-01
  8.1846513e-02
 -5.9915986e-03
  1.4122504e-01
 -1.0452767e-01
 -1.4799722e-02
 -2.7762542e-02
 -9.1060974e-02
 -1.0127422e-01
  2.8546983e-02
  3.5998199e-02
  1.5534276e-02
 -5.9355851e-02
 -6.0653504e-02
  5.7694159e-02
 -9.6805885e-02
 -4.4588987e-02
 -1.8253844e-02
 -1.2929375e-02
  1.7940210e-02
 -9.5762469e-02
 -1.9512112e-01
 -1.5299149e-01
 -2.0527042e-01
 -8.9090376e-04
  3.0441312e-02
  5.5428453e-02
  3.0643167e-02
  3.5809413e-02
  1.5816824e-01
 -2.9122928e-01
 -2.4705319e-02
 -1.3347276e-02
  7.6227464e-02
  5.9662588e-02
 -2.5997314e-01
 -1.1415098e-01
 -9.6452579e-02
 -1.1811412e-01
  1.2924147e-01
 -5.4244897e-03
 -9.0585671e-02
 -2.4601743e-02
  1.4808203e-01
 -1.4269793e-02
 -1.3116191e-01
  6.5578453e-02
  1.2444936e-01
  2.1389693e-01
 -2.0857218e-01
 -8.2207792e-02
  2.4557184e-02
 -4.0468178e-03
  8.5662790e-02
 -7.7542095e-03
  9.6387178e-02
 -4.5011219e-02
 -3.4603540e-02
  8.1838727e-02
  4.1259807e-02
  6.2504880e-02
  1.5996858e-01
  4.8417047e-02
 -1.1221109e-01
  1.8793808e-02
  5.5692419e-03
  1.2049658e-01
 -7.4108079e-02
 -9.4180375e-02
  2.5834234e-02
  2.4415862e-03
 -2.6968026e-01
  4.5919351e-02
  9.9571414e-02
 -1.1112852e-01
 -1.5477152e-01
  5.0604534e-01
  5.0935116e-02
 -1.6216313e-02
  4.8979387e-02
  2.4802392e-02
 -5.3768650e-02
  7.1805939e-02
  1.2684825e-01
  2.1437337e-01
 -1.7522573e-01
 -7.0858759e-01
  5.9731328e-01
  1.4990771e-01
  1.8058358e-01
  5.7101476e-01
 -9.5838583e-01
  1.4180886e+00
 -8.2953855e-02
 -2.2227497e-01
 -1.1211827e+00
  2.0835626e-01
 -3.8184142e-01
  9.0062939e-02
  3.3145246e-01
 -1.4042498e-01
 -4.7701348e-02
  6.4663240e-03
 -6.7008985e-04
 -3.6753546e-02
  3.3362810e-02
  9.6035004e-02
  1.0563249e-02
  3.4878170e-01
 -3.7361793e-02
 -5.0593145e-02
  4.0936750e-01
  1.5523379e-01
  4.8358515e-03
  4.9301572e-03
 -1.2199729e-01
 -6.1858356e-02
 -1.0980378e-02
 -1.3066939e-02
  8.3165772e-02
  8.8739693e-02
 -4.8201177e-03
 -2.0494217e-02
 -3.4065377e-02
 -1.2997456e-01
  2.1930260e-04
 -2.6459165e-02
  2.4540888e-01
 -4.2624362e-02
  2.7116174e-02
 -1.7628625e-02
 -1.9483896e-01
  7.5299382e-02
 -2.1411188e-02
  1.0112958e+00
 -4.1621706e-01
 -2.0476675e+00
 -5.3400105e-01
 -2.2337770e-01
  3.9549413e-01
  7.5855863e-01
 -2.1311691e-01
  2.2127383e+00
  9.2315055e-02
  7.9348993e-01
 -4.9995720e-01
  1.0901721e+00
  1.0806154e+00
 -6.0808402e-01
  7.0153660e-01
 -2.3293182e-01
  4.9698666e-02
  2.0400654e-01
  4.2067423e-01
  2.4481134e-01
 -6.2409151e-01
  1.6827063e-01
  7.3674774e-01
  4.6118483e-01
  3.0077770e-01
 -3.9048579e-01
  4.5277539e-01
 -1.4331049e-01
  5.7323354e-01
 -1.5316249e-01
 -1.6464351e-01
  1.6774930e-01
  2.4351098e-02
  1.3126363e-01
 -2.0337862e-01
  1.1921204e-02
  4.1993286e-02
  2.8337413e-01
  5.3278404e-01
 -1.1479923e-01
  2.6597580e-01
  2.2973778e-02
  7.1678275e-01
  1.9436888e-01
 -1.4061673e-01
  1.6037160e-01
 -1.8081807e-02
  1.9329746e-03
  8.4093269e-03
 -5.8143560e-02
  1.6531754e-01
 -2.1419371e-02
 -2.7038349e-02
  2.1192701e-01
  3.2183964e-02
 -1.1774965e-01
  3.0144930e-01
  5.2020371e-02
  1.6283880e-01
  2.2053908e-01
 -6.3771508e-03
  3.0790776e-01
 -2.0724472e-01
 -1.2241972e-01
  2.3798643e-01
 -2.3269646e-02
  1.0722208e-01
 -1.4635397e-02
  2.5695935e-01
 -8.6840017e-05
 -1.4536847e-01
 -2.7863711e-02
 -1.2161627e-01
  2.8683448e-02
 -3.8862512e-02
 -9.6665211e-02
 -2.1941664e-02
 -4.9098279e-02
 -2.3416430e-01
 -4.8481636e-03
 -7.8557715e-02
 -5.1987845e-02
 -4.1763272e-02
 -4.2885810e-02
 -2.0226734e-02
  5.6738155e-03
  8.1548877e-03
  7.2500319e-03
 -2.9098563e-02
  2.2190031e-02
 -3.1239679e-02
  1.6381109e-02
  2.8588980e-01
  1.5800379e-02
  1.8877767e-02
  3.4249291e-02
  3.1774230e-02
  2.5621228e-02
 -1.7806862e-01
 -2.3336945e-02
  6.7589290e-02
 -1.3470352e-03
  1.0405672e-01
  1.6876617e-02
  7.3567979e-02
 -1.6918409e-01
 -1.1491341e-01
  7.3585398e-02
  6.0107980e-02
  4.5108844e-02
 -5.8627915e-02
 -8.0291979e-02
  5.2670371e-03
 -1.2336922e-01
  9.4621576e-02
  2.7803676e-02
  1.5304352e-01
 -2.0477675e-01
 -2.1320653e-01
  7.0467299e-01
  6.2229228e-01
  1.3403268e+00
  7.6851332e-01
  1.6200200e+00
  1.0193360e+00
  7.5808811e-01
 -3.8151348e-01
 -7.8052366e-01
  9.7166568e-01
  4.8379765e+00
 -3.1817460e-01
 -8.4131175e-01
 -1.4159194e-01
  1.5726265e-01
 -1.9724553e+00
 -1.9259342e+00
 -8.3740103e-01
 -2.0831177e-01
 -1.3624833e+00
  1.1178553e+00
 -1.0924050e+00
 -2.9050879e-02
  2.8254464e-01
 -7.4529523e-01
 -2.9738858e-01
  8.4213585e-01
  1.0982511e+00
  2.3789039e+00
  3.6891777e-02
  1.1648448e+00
 -1.7731991e+00
 -5.7581192e-01
  1.1453725e+00
  9.6380211e-02
 -1.9498996e+00
 -3.9637801e-01
 -7.4646913e-02
  4.7596473e-01
 -1.0024276e+00
 -2.8890131e+00
  2.8881004e+00
  1.1982416e+00
 -5.3157383e-03
 -2.8054833e-02
  2.9137914e+00
 -1.4868151e-01
 -7.9941940e-01
  7.9231906e-01
  1.4710228e+00
  1.3133225e+00
  3.4408372e-02
 -1.0540913e+00
 -7.5542730e-01
  7.1124725e-02
  2.1088710e+00
  2.8711674e+00
 -9.3669200e-01
 -1.5389237e+00
  1.2317901e-01
 -5.8860582e-01
  2.3766802e-01
 -1.3752881e-02
  1.7501395e-02
  3.7431481e-01
  2.7540455e-02
  1.8458442e-01
  1.9010687e-01
 -3.7453917e-01
 -6.2383991e-01
 -8.9219058e-01
  3.0873587e-02
 -1.0853859e-02
 -4.0223619e-01
 -1.1124394e+00
 -5.7273891e-02
 -7.4050151e-02
  4.7401935e-02
  3.5839871e-01
 -8.0798113e-01
 -1.9405457e+00
 -7.0741600e-01
 -1.0430434e-01
  3.3616343e-01
 -1.6636951e-02
 -3.6771202e-01
 -4.1531318e-01
 -5.3164977e-01
  6.2583372e-02
  2.2274102e-01
  1.8760946e+00
 -4.7759369e-02
  8.1980240e-01
 -3.5045782e-01
 -1.9680591e-01
 -1.7804337e+00
  1.3207704e+00
  6.4653736e-01
 -1.2162340e+00
 -6.1016357e-01
  4.3240452e-01
  4.5908228e-02
  1.1142841e-01
  1.5574275e-02
  8.9329964e-01
  1.3579112e+00
 -3.4843704e-01
 -1.4240962e-01
 -1.6274512e+00
 -3.8841999e-01
  2.1560922e-01
 -2.2094652e-01
  1.0476475e+00
 -2.5150597e-01
  4.1151773e-02
  1.1395974e+00
  6.0713720e-01
  8.1959867e-01
 -6.3469961e-02
 -6.1809129e-01
  3.7700772e-02
 -6.5429442e-02
 -3.0166179e-01
  1.3945194e-01
 -4.8323002e-01
 -3.0136171e-01
 -6.4358413e-02
  5.6083176e-02
  4.5215823e-03
 -2.2980054e-01
  1.8701431e-01
 -2.1019138e-01
 -5.3078782e-02
  9.1035128e-01
  9.4927385e-02
  3.1496370e-01
  1.4283158e+00
  1.8494016e-01
  1.1242547e-01
  2.0941610e-02
  8.9179456e-02
  4.0492365e-01
  2.7218774e-01
 -1.8365014e-02
 -1.3329298e-02
  5.5406290e-01
  1.0761873e-01
  3.8866341e-02
  1.7001424e-02
  1.0852637e-01
 -1.0168890e-01
 -2.0900482e-01
 -7.1281441e-02
  1.4177172e-01
 -1.8954094e-02
 -1.0784285e-01
 -2.5236428e-01
 -3.9128974e-04
 -2.2079614e-03
  1.6740388e+00
  8.1426764e-01
 -5.2823186e-01
 -4.1628799e-01
  6.1072016e-01
  1.1816970e+00
  1.5475139e-01
 -1.5128046e+00
 -1.7484191e-01
 -7.1975023e-01
  6.8078810e-01
  1.0858736e+00
 -2.8351554e-01
  1.2524465e-02
  1.3859266e-01
  2.3698987e-01
 -4.1252039e-02
  1.0096507e-01
  1.3245465e-01
  1.2304871e+00
 -7.7123040e-01
 -1.0040922e-01
 -2.0602396e+00
 -2.4620411e-01
 -2.7828196e-01
  1.2772679e-01
 -3.6280491e+00
 -6.6941883e-03
  5.7030171e-02
  1.1215117e+00
 -7.1579033e-01
 -3.3101985e+00
  4.7539970e-01
  1.0793850e-01
  1.5483063e-01
  5.8215417e-02
 -2.0573363e+00
  1.6089932e+00
 -1.6864879e+00
  3.2298043e-01
  2.0646114e+00
  9.5260370e-01
  1.3590852e+00
 -2.0281847e+00
 -8.9648116e-01
  2.7673134e-01
 -5.7088512e-01
  1.8365942e-01
 -1.1659167e+00
 -2.1542211e+00
  2.5878781e-01
  1.7941203e+00
 -7.7839035e-01
 -9.2737389e-01
 -6.2823623e-02
  2.0167963e-01
  9.2735447e-02
 -3.0779618e-01
  8.0461687e-01
  8.7996453e-01
  1.1191602e+00
 -1.9145722e+00
  4.7175112e-01
 -2.9233202e-01
 -9.8927462e-01
 -2.7616268e-01
  1.4528400e+00
 -8.5502982e-01
  1.5983585e-01
 -3.9136419e-01
  1.1959621e-01
 -5.7253516e-01
  3.0223429e-01
  2.9042345e-02
 -1.8156946e-02
  2.1607166e-02
  4.3462884e-01
  7.8514075e-01
 -2.5622573e-01
 -7.9150135e-03
 -1.8352725e-02
 -5.3966842e-03
 -9.2868730e-02
  1.1984778e-02
  7.6255195e-02
  2.6336152e-02
 -6.8902031e-02
 -4.3824926e-02
  4.5970477e-02
  1.0562309e-01
  2.0205714e-01
 -2.2837172e-01
 -4.5742851e-02
  8.6587057e-02
  1.3658723e-01
 -3.1585220e-02
  4.3537836e-03
  3.6175564e-02
 -1.7419848e-01
  6.9453143e-02
  8.1039168e-02
 -2.1961969e-03
  9.8293889e-03
  3.1160928e-02
  2.1739190e-03
  7.0619188e-02
  6.8247519e-02
 -1.3713455e-01
 -2.3058291e-01
 -1.1325634e-01
 -2.6906606e-02
 -2.2506210e-01
  1.9888513e-01
  4.2437878e-01
  4.7405705e-02
 -1.0056071e-01
 -3.6998817e-01
  9.2295384e-01
  5.2470040e-02
 -4.2948321e-01
  4.4935548e-01
 -4.9294546e-02
 -1.1216284e-01
 -1.6861546e-01
  1.2739208e-01
 -1.5757605e+00
  2.4885130e+00
 -1.5028605e-01
 -7.0975322e-01
 -3.7049982e-01
  6.9272881e-03
 -5.4881978e-01
 -8.8513070e-01
  1.9267184e-01
 -1.3075566e-01
 -1.1358862e-01
 -1.3040795e+00
 -5.4010592e-02
  6.7096353e-02
  4.8096064e-01
 -5.4770356e-01
  2.4109738e-02
  3.9681759e-02
  2.3865595e-01
  6.5653227e-02
  1.3304304e-02
  1.6200200e-01
 -5.4064608e-01
 -6.1799388e-02
  1.5979027e-02
  3.1741646e-01
  1.1554276e+00
 -2.6860493e-01
  7.4824667e-01
  1.6309901e-01
 -1.6446590e-01
  1.1163421e-01
 -1.0765619e+00
 -2.3470077e-01
  9.2125192e-02
  5.8253354e-01
 -1.9802022e-01
 -2.8145912e-01
  1.1571664e-02
 -5.2514172e-01
  2.6676919e-02
 -1.3202122e-01
 -4.9836001e-01
  1.5830614e-02
 -1.5348291e-01
 -3.6763087e-01
  1.6684312e-01
 -4.5857453e-04
 -1.5111132e-02
 -1.9939249e-02
 -8.4432438e-02
  1.0999751e-01
 -2.2288486e-01
  9.2252791e-02
  2.1307984e-01
 -1.7584055e-03
  1.0873353e-01
 -7.0184790e-02
  2.8973948e-02
  5.0680139e-03
 -8.2995957e-03
 -1.4749923e-02
 -1.9149475e-01
 -1.1074606e-01
  6.6630930e-02
  3.5152789e-02
 -1.4554233e-02
 -5.9256870e-02
  1.0448352e-01
  2.9422661e-02
 -2.5354508e-02
  2.4855372e-02
 -1.6398931e-02
  2.0341342e-02
  1.8903626e-03
  7.5268917e-02
 -5.2621239e-03
 -1.4944715e-04
 -3.1678900e-01
 -1.5196878e-01
 -2.2007130e-01
  2.1924291e+00
 -4.5934004e-01
  9.2271538e-03
  3.8148475e-01
  1.7407183e-01
  1.0772050e-01
  1.3043624e+00
 -2.3336355e-01
  2.2080183e-01
  1.1513885e-01
  1.7456858e+00
 -5.9202254e-01
 -3.5559115e-01
 -8.7566090e-01
 -5.5494720e-01
  1.3322522e-01
 -9.9015638e-02
  2.5644498e-02
 -8.4307188e-01
  4.5430949e-01
  1.1787155e+00
  3.6648023e-01
  1.0583162e-01
  4.0674916e-01
 -3.4892857e-02
 -4.0895441e-03
 -1.3000600e-02
 -1.0212122e-02
 -1.6326723e-01
  4.3852948e-02
 -7.3444881e-02
  1.0706109e-02
  7.9465404e-02
 -2.1216477e-01
  1.9743259e-01
  1.0337896e-02
 -2.7328379e-02
  2.4655642e-02
 -2.7764174e-01
  1.3793533e-01
  1.6073698e-02
  8.7667024e-03
 -1.0536429e-02
  3.3814709e-03
 -2.0992294e-02
 -4.6005793e-02
  6.8858325e-02
  1.8457329e-02
 -7.2123595e-02
  7.6159991e-02
  2.2947937e-03
 -3.5312001e-02
  4.1234773e-01
  9.3459867e-02
 -2.9626298e-03
  2.0260112e+00
 -1.5625507e+00
 -2.7729702e+00
  7.7623719e-01
  1.8071847e-01
  3.5078773e-01
  1.4366859e-01
  6.5876943e-01
  3.6533752e-01
 -2.6735258e-01
  1.5199710e+00
 -1.0422812e+00
  4.5457825e-01
 -1.0285448e+00
  4.7297768e-02
 -1.4452776e+00
  5.3137708e-01
  9.8586667e-01
 -9.8150301e-01
 -4.2502761e-01
 -2.9129821e-01
 -1.6427764e-01
  8.2573479e-01
 -1.3552517e+00
  1.8674582e-01
 -1.5491594e+00
  7.4887419e-01
 -3.8322541e-01
  1.5872295e+00
 -3.6062068e-01
  6.3818306e-02
  1.2390320e-03
  4.1091185e-02
  1.7411870e-01
 -6.1490823e-02
  3.1160206e-01
  2.2463057e-02
  5.2360933e-02
 -1.1404073e-01
  5.0384313e-01
 -3.4388483e-01
 -3.4383070e-02
  1.3435911e-01
  5.7895891e-03
 -3.7511763e-01
  9.0362635e-03
 -2.8281901e-02
 -4.4701293e-02
  9.2657350e-02
  6.3112890e-03
  6.8365090e-02
  2.0465985e-02
 -1.7558942e-02
  1.1799175e-01
  8.0749206e-02
 -3.4556497e-02
 -1.7736411e-02
  1.9953338e-02
 -1.5354089e-02
 -6.5928645e-02
 -3.8370994e-01
  1.1743942e-02
  1.5826464e-01
 -5.5383372e-01
 -9.0271614e-02
 -1.7248099e+00
 -4.5839137e-01
 -1.9002089e-01
 -7.8246486e-01
  1.8303874e-01
  2.2543533e+00
  1.1239159e+00
 -2.6686358e+00
  1.5153591e-01
 -4.0123874e-01
 -5.4092067e-01
 -6.0112332e-03
 -1.2567741e-02
  5.0221992e-01
  5.9676808e-01
 -5.3255297e-02
 -1.5095692e+00
  3.4204307e-01
 -5.0796705e-01
  9.7245365e-01
 -3.1183887e+00
 -3.5864943e-01
 -2.2791951e+00
  1.0059917e-01
 -2.9886180e-01
  1.7379477e+00
 -2.0899899e+00
  6.9250171e-03
  1.2007705e+00
  7.9767399e-02
  5.8574790e-01
 -2.0128904e-02
 -1.0761739e-01
 -6.4541221e-02
  3.6829379e-01
 -2.4190286e-02
  1.0233074e-01
  8.3920965e-03
  2.5577402e+00
 -2.4064478e-01
 -5.6844109e-01
  7.4491888e-01
  5.6475759e-01
  2.6420435e-01
 -2.0505567e+00
  1.5466698e-01
  8.4452502e-02
  7.3741668e-01
  1.4543700e-02
  1.7736094e-01
  1.1198860e+00
  4.3574569e-01
  3.4943721e-01
 -4.7175393e-02
  7.9920483e-01
 -1.0226098e+00
  9.0991241e-01
  1.0716596e-01
  1.1979071e+00
  6.4848312e-03
  1.4655440e-01
 -4.4228863e-03
 -4.0982321e-01
  2.3141485e-02
 -2.0221519e+00
 -2.2566143e-01
 -5.3255942e-02
 -2.4627199e-02
  3.1028914e+00
 -3.3320062e+00
  8.7986928e-01
 -1.1549808e+00
 -4.5172393e-01
 -3.7177297e-01
 -2.5205283e+00
 -7.9206532e-01
 -3.8023524e-02
 -6.4056349e-01
  4.8550212e-01
  1.1547995e-01
 -7.9920888e-01
 -8.3336718e-02
  8.7476498e-01
  1.6412303e-01
 -1.2600324e+00
 -1.1907319e-01
 -5.6517583e-01
  1.9632539e-02
 -1.7885740e-01
 -6.1885476e-02
  3.2132599e-01
 -1.4390095e+00
  1.3562897e-01
  2.3255184e+00
  7.2817519e-02
 -6.9206633e-02
 -1.3238763e-02
  1.0272422e+00
 -1.2502501e+00
 -7.7378832e-02
 -1.0225120e+00
 -5.5570048e-01
  2.5629340e-02
 -6.8710291e-01
 -2.0664965e-01
 -1.4680921e-01
 -2.1842241e-02
  7.3411460e-03
  2.5198672e+00
  7.1625836e-02
  4.0729109e-02
 -4.5373905e-01
  1.3179725e-02
 -1.7425980e-01
  2.8608403e-01
 -2.5190747e+00
  6.6104913e-03
 -2.7447030e-02
  4.9051678e-01
  6.8211758e-01
  2.4361660e-01
 -4.7266194e-01
 -7.6439679e-01
 -1.6549601e-01
  1.0760966e-01
 -1.5134891e-02
  4.0854159e-01
 -1.2526925e+00
  8.2643092e-01
 -3.2630473e-01
  3.3447799e-01
 -4.7561559e-01
  6.5088642e-01
  1.2192692e+00
  7.1897161e-01
  1.4203203e+00
 -8.7706819e-03
  2.7422187e-01
  1.6939266e+00
  1.1183751e+00
  1.5024857e-01
 -8.1222452e-02
 -1.7600169e-03
 -1.0473347e-01
 -9.2673950e-02
 -3.1236527e-02
 -4.1224290e-02
  9.2204101e-02
  6.1825357e-02
 -2.6655475e-02
 -9.3868293e-02
  4.0966935e-02
  4.4248775e-02
 -1.7127165e-01
 -8.7975085e-02
 -9.7046658e-02
  8.8983489e-04
  1.7370868e-01
  1.4141147e-02
  5.1864535e-01
  1.2493960e-01
 -3.1869224e-01
  3.5341822e-02
 -1.7929021e-01
 -1.7286872e-02
 -5.4664485e-02
 -1.0103387e-01
  2.8990254e-02
 -3.3673716e-01
  1.1541037e-01
  1.9198725e-02
  1.1444537e-01
  3.1472106e-02
  1.1921623e-01
  5.4360405e-02
 -4.1742541e-02
 -1.5885090e-02
  4.1947857e-02
 -3.2348916e-02
 -5.5097915e-02
 -4.7888448e-03
 -1.3398738e-02
 -3.2518961e-02
  5.6601077e-02
  6.9891497e-02
  4.0700432e-02
  9.9427529e-02
 -4.6418823e-02
  4.7584958e-02
  5.6273334e-02
  4.9923368e-02
  3.1903043e-02
  1.3116122e-02
 -1.0495155e-01
  2.2000852e-01
 -1.9500438e-02
 -2.1461871e-01
  4.6764560e-02
  3.1146530e-02
  5.8431145e-02
  2.5850093e-02
 -1.6993599e-02
 -1.8715161e-01
 -1.4904056e-01
 -4.1712154e-02
 -3.9004296e-02
 -5.3431094e-02
  4.4608533e-01
 -1.7150699e-01
 -8.2008325e-02
 -6.7245498e-02
  1.1756270e-01
 -5.1006194e-02
 -3.0179954e-01
  4.1570332e-02
  3.0935314e-01
  4.4876251e-01
  4.3932611e-01
 -2.7446300e-01
 -1.1817572e-01
 -2.5206429e-01
 -7.3056646e-02
 -1.1321865e-01
 -4.2196304e-02
 -6.1992206e-02
 -2.4134459e-01
  1.4751893e+00
  2.8489500e-01
  4.9639961e-01
  6.3501872e-02
 -9.5961012e-02
  3.0593541e-01
  2.2021498e-01
 -9.0605408e-02
  7.3518522e-02
  1.0507697e-01
  1.1016658e-01
  7.7896155e-02
 -1.6407998e-01
 -4.6688390e-01
 -4.7441873e-01
 -1.0623211e+00
  1.4181832e+00
 -2.4008836e-01
  9.4070989e-01
  7.4151121e-02
 -1.9000828e-01
  1.1495322e-01
 -1.8216929e-01
  1.1402832e+00
 -5.6887917e-02
 -1.3658872e-01
 -2.7638450e-01
  6.0749513e-01
  3.4656197e-01
 -1.2952013e-02
 -3.3371723e-01
  1.6705915e-01
  1.2571065e+00
  2.1851107e-01
 -3.4647170e-01
  3.2626626e-01
  3.2014048e-01
 -5.7313830e-01
 -1.0137782e-01
 -6.8032863e-03
  4.4458192e-02
 -5.5621336e-03
 -4.2226790e-03
 -7.1701728e-02
  9.7811170e-02
 -6.9994377e-03
 -4.3141466e-02
  4.0345665e-02
  7.5162321e-02
 -3.0472636e-02
 -1.9812968e-02
 -3.7147462e-01
 -1.3259718e-01
 -2.0691745e-01
 -1.9956127e-02
 -4.2731225e-02
 -1.9380604e-01
 -2.5497051e-02
 -3.5454337e-02
  5.2842442e-02
 -7.0571035e-02
 -6.1331827e-02
 -1.0425337e-01
  5.4705631e-02
  1.1661813e-01
 -1.6508128e-01
  9.5968157e-02
  1.0075666e-02
 -1.2539413e-02
  6.9409623e-03
 -7.7896290e-02
  1.8213263e-01
  5.4229815e-03
  9.7231723e-02
  2.4369626e-01
 -1.3423894e-01
 -1.0726659e-02
  2.3356371e-01
  5.9783799e-03
 -8.1298210e-02
  1.0007472e-01
 -1.3292532e-01
 -6.6316321e-02
  2.4999572e-02
 -3.0634258e-02
  9.2649251e-02
  9.5560430e-03
  1.3129075e-01
  2.7529168e-01
  3.6974106e-02
  1.8053152e-02
 -2.4525216e-02
  1.7024936e-01
 -5.2263699e-02
  6.9153644e-02
  8.0119751e-02
 -7.1597531e-02
 -1.6274330e-01
  1.9107857e-01
 -1.0643233e-01
  3.5188512e-03
  3.3057373e-02
 -6.9055244e-02
 -2.3767540e-02
 -9.7185373e-02
  5.7779908e-01
 -1.4051761e-01
  2.6743168e-01
 -3.2769367e-01
 -1.7683307e-02
  1.3884634e-01
 -3.6059904e-01
 -6.0607042e-02
  2.2973198e-01
 -1.7637704e-01
  1.2000337e-01
 -1.9513729e-01
 -5.5652939e-02
 -2.7618775e-02
  1.6805173e-01
  1.5492387e-01
  2.0236884e-01
  3.5773873e-01
  2.1911670e-01
  1.6776913e-01
 -4.1408417e-01
  1.0003461e-02
  1.5440999e-01
  4.4797368e-02
 -1.5533855e-02
 -7.2151303e-02
 -3.8319524e-02
 -3.3858191e-02
 -7.4048087e-02
  5.6699913e-02
 -3.0929929e-01
  1.9754033e-01
  8.8439352e-04
 -2.9014309e-03
 -7.7100247e-02
  2.4992958e-02
 -1.4597107e-01
  2.5159523e-01
 -1.3693164e-01
 -8.1366204e-02
  1.6448714e-02
  6.9380641e-01
 -8.8653065e-02
 -5.3219604e-03
  6.2376563e-02
 -3.5278115e-02
  7.0834510e-02
  5.7052247e-02
  8.3189584e-02
  9.2394345e-02
  2.9297173e-01
  2.7613297e-02
  8.1777044e-02
 -3.6697229e-03
 -1.4898084e-02
  6.2816985e-02
 -1.3937733e-01
 -8.1463575e-02
 -4.4662338e-02
 -1.5208253e-02
 -1.0409211e-01
 -3.5672441e-02
  1.1122655e-01
 -8.2040548e-02
 -2.0124961e-01
 -1.1389563e-01
 -1.1744359e-02
 -1.1719385e-02
  8.0604227e-03
  4.9559873e-02
 -7.7231028e-03
 -4.6614721e-02
 -9.9129610e-02
 -8.9510292e-02
  8.9509739e-03
 -5.3819086e-02
 -6.2113263e-02
  4.4805784e-02
 -2.3782576e-02
 -2.1806112e-01
  6.5251268e-02
 -1.4116236e-02
 -1.2281474e-01
  1.5170197e-02
 -2.2607905e-01
  2.3713759e-01
 -3.9582621e-02
  1.3127485e-01
 -4.0077493e-02
 -6.8361708e-03
  8.3018953e-05
  5.0136950e-02
  3.6634996e-03
 -1.0666904e-01
  2.7523924e-02
  3.1583507e-02
 -4.8731633e-02
  1.3804555e-02
  7.3480941e-02
  9.6807167e-02
 -5.0686509e-04
  1.1117509e-02
 -8.5394599e-02
  6.8379916e-02
 -8.7709669e-03
 -2.6894040e-02
  9.8050483e-02
  5.6474596e-02
  2.4847865e-02
  2.9633912e-01
  1.7461233e-01
  4.7343480e-03
 -3.6371756e-02
  5.5971432e-02
 -1.6759647e-01
  1.0436959e-02
 -1.2968750e-01
  1.5247600e-01
 -3.2613865e-01
 -9.0855941e-02
  6.6189244e-02
  7.5576715e-02
  1.1500634e-01
 -8.4131517e-02
 -3.8726345e-02
 -8.8761702e-02
 -2.4177290e-02
  8.0421634e-02
  1.6012952e-01
  7.4017838e-02
 -1.4293274e-01
  8.8419273e-02
 -6.6500671e-02
  6.2442645e-03
  3.5739910e-02
 -1.1606406e-02
 -7.7863014e-03
  1.4686406e-01
  1.9635661e-03
 -5.2151624e-02
  1.8424323e-02
 -7.8966178e-02
  1.3595311e-01
 -9.2999712e-02
 -2.1496660e-03
  1.0252293e-01
  8.5853457e-02
  1.2335394e-01
 -3.1009074e-02
  4.8089948e-02
  1.2203151e-02
 -8.0374600e-03
 -5.6067776e-02
  4.4993170e-02
  1.0292841e-01
  4.9844041e-01
 -1.9681913e-01
  2.6944738e-02
  6.4528491e-03
  1.7481700e-01
  6.6350251e-02
 -6.2656730e-02
  9.0497985e-02
  1.5662692e-01
 -1.1395802e-01
  5.9961062e-03
  1.1782052e-01
  8.7353073e-02
  1.4376917e-02
 -1.8047978e-01
 -1.2330922e-01
 -1.9276059e-01
 -2.2557275e-01
 -2.4517981e-02
  1.7162966e+00
  6.0111171e-01
 -5.5776453e-01
  3.3374348e-01
 -1.5220602e+00
 -3.9872397e-02
 -1.3243906e-01
  3.7989400e-02
  2.7407870e+00
  2.0020881e+00
 -1.4795947e+00
 -3.1792501e-01
 -2.8395772e-01
  1.1038479e+00
  1.4764891e+00
 -1.5736660e-01
 -1.6931485e+00
 -2.3605393e-01
 -7.2804743e-01
  8.3449984e-01
 -9.2725718e-01
  4.3997696e-01
 -3.1432897e-01
 -1.6275727e+00
  8.6829561e-01
  5.2731264e-02
 -3.3431807e-01
 -7.8697331e-02
 -1.9943917e-02
 -9.7149223e-02
  2.7224019e-01
 -6.0036272e-02
 -4.8292652e-02
 -9.2169397e-02
  8.5997425e-02
 -4.2210456e-02
 -4.8763756e-02
  1.7761290e-01
 -9.3394956e-03
  9.2452757e-02
 -5.6221563e-02
 -1.1651925e-01
 -1.6947207e-01
  1.6849395e-02
  6.5303482e-02
  1.1314839e-01
  1.1585312e-02
 -3.3665810e-02
  1.5978751e-01
 -2.0158697e-02
  3.3022040e-01
 -4.1102659e-02
 -5.1728837e-02
  4.5030513e-01
  1.0123852e-01
  4.4900250e-02
 -1.3740070e-01
  4.3667708e-02
  6.9577232e-02
  1.0470679e-01
 -4.8030610e-03
  6.2442437e-02
 -1.1534691e-01
  1.4732002e-02
 -4.4016927e-02
  7.9687700e-02
  1.2417131e-01
 -7.3535964e-02
  1.1308759e-02
 -1.9748613e-02
  1.6205338e-01
 -9.4467789e-02
 -1.0664558e-01
  4.7088251e-02
  1.9277771e-01
  6.8231948e-02
  5.2094486e-02
 -3.7374731e-02
 -1.7654376e-02
 -3.0008836e-02
 -4.9918175e-02
  1.7647155e-01
  9.4878308e-02
 -8.2217753e-02
  1.6117191e-01
 -5.9109207e-02
  3.6861219e-02
 -2.1516541e-02
 -1.7079318e-01
 -2.0498107e-01
 -5.3879466e-02
  1.3065290e-03
 -9.8458111e-02
 -1.8125717e-02
  4.4684872e-01
  1.7742351e-01
 -1.1248310e-02
  1.0486011e-01
 -5.0744649e-02
 -2.5016766e-02
 -3.2840395e-01
 -8.0789901e-02
 -1.0157353e-01
  3.6326606e-02
  7.6357615e-03
  9.2975684e-02
  7.0993669e-02
  4.5208197e-02
 -7.5882949e-02
  2.1205902e-02
 -5.3343955e-02
  9.8862499e-02
 -4.8029583e-02
  1.9038269e-01
  1.1524289e-02
  1.1053634e-01
  3.3653340e-01
  1.2953328e-01
 -2.3757856e-02
 -9.2309155e-03
 -6.2965637e-01
 -5.7677906e-02
  5.8433944e-01
 -2.3452279e-01
  8.6681896e-01
  1.5687572e-02
 -1.7728550e+00
 -1.9902096e+00
 -3.1997517e-01
 -1.1849682e+00
 -1.5441360e-01
  2.1059506e-02
 -1.9206877e-01
 -2.5713348e+00
 -2.0292807e+00
 -1.7784627e-02
 -5.2797151e-01
  4.6619204e-01
 -2.3953130e+00
 -1.6387254e+00
  2.2236986e-01
 -3.2376161e-01
  8.4966592e-02
 -7.5586671e-01
 -3.4753263e-01
  7.7054724e-03
  2.1285562e-02
 -7.8983411e-02
 -4.2550397e-01
 -3.0172441e-02
  8.0452633e-01
  1.8220593e+00
  1.1978115e+00
 -2.8473499e-01
  5.1434167e-02
 -5.4751527e-01
 -2.2072439e+00
 -2.2945984e-01
 -1.7603474e+00
  4.0041241e-01
 -3.1950783e-02
 -2.4004488e+00
  4.5631123e-01
 -1.7740761e+00
  4.0736115e-01
 -1.1215031e+00
 -6.1987674e-01
  2.9896319e-01
  3.9061067e-01
 -8.5794359e-02
 -9.9898583e-01
  1.6111210e-01
 -9.8891884e-02
 -2.0937266e-02
  4.1063672e-01
 -4.1102585e-01
  2.8821674e-01
  3.9646313e-02
 -6.0046065e-01
 -1.8679039e-01
 -8.0078721e-02
  4.6978746e-02
 -8.0030747e-02
 -7.0045851e-03
  2.5839859e-01
  2.5667930e-01
 -1.0862789e-01
 -1.6492451e-02
  8.7278917e-02
  9.8663114e-02
 -2.4866296e-01
 -2.2395069e-02
 -2.2560300e-01
  1.1534820e-02
 -1.2840281e-02
 -3.6423840e-02
  1.7353179e-02
 -2.3807608e-02
  3.2951489e-02
  2.2557369e-03
  1.3768548e-01
 -1.0017847e-01
  2.1728808e-02
 -3.5454068e-01
 -7.9515316e-03
  1.6961274e-01
 -1.2636721e-01
  2.7780298e-02
  1.1187460e-01
 -3.1408917e-02
 -1.4621398e+00
 -7.9733595e-02
 -2.1778988e-02
 -1.6663496e-01
 -1.3020009e-01
  6.1312181e-01
 -6.6547465e-01
  9.1782421e-01
 -1.5816945e+00
 -3.3194326e-02
 -1.5081576e-01
  2.5621796e-01
  4.0877831e-01
  2.0242758e+00
 -5.4265283e-02
  2.5957546e-01
  1.6137785e+00
 -1.6006818e-02
  1.6610532e+00
  6.4442909e-01
  2.1197500e+00
  9.0593177e-01
 -2.3755865e-02
 -6.7680813e-02
  5.5979556e-01
 -4.9304303e-02
 -8.2786101e-01
 -7.5448558e-02
 -1.7850139e-03
  7.6310292e-02
  4.8376318e-02
 -8.8323103e-03
  4.0821083e-02
 -1.9967203e-01
 -3.2896134e-01
 -1.7746903e-01
  5.5631883e-02
  1.0028997e-01
 -1.0358657e-01
  9.6466310e-02
 -1.8783227e-02
  8.2104884e-02
  7.3181726e-02
 -4.1466594e-02
 -3.8729280e-02
  2.4453275e-02
 -3.2374701e-01
  5.5044092e-02
 -3.3922829e-02
  1.3450646e-02
  1.0570243e-01
 -3.7155557e-02
 -1.0284031e-02
 -3.8382433e-02
  2.3440285e-02
 -1.3935833e-01
 -6.0016401e-02
 -1.0191433e-02
  1.1006483e-01
 -2.1450551e-02
 -3.0803205e-02
  1.7791230e-04
 -1.2184487e-01
  1.1791048e-01
 -2.7507976e-02
 -1.7778648e-02
 -5.6253280e-02
  1.7751489e-02
  1.1356976e-01
 -5.1691588e-02
  3.0345615e-02
 -1.5025222e-02
  1.6998673e-02
  1.3398512e-01
  5.2460477e-02
 -1.0932694e-01
  1.4754638e-01
 -5.2047167e-02
 -1.3420624e-02
 -1.2956977e-01
  7.1410939e-02
 -2.2111487e-02
  5.1703148e-02
 -3.5953574e-02
 -7.0210986e-02
  6.7093842e-02
 -1.6138017e-01
  4.0665191e-01
  2.4088417e-01
 -2.0397408e-02
  2.6040044e+00
  1.9085146e-01
 -2.5767561e-03
  1.9680518e-01
  8.1520062e-03
 -2.4037944e-02
 -3.9763670e-02
 -3.8940242e-01
 -1.2481883e+00
 -2.2952016e-03
  2.2837479e-02
 -1.2598633e+00
 -2.7753416e-01
  8.0156088e-02
  8.4575295e-02
 -2.0584559e-01
 -8.2605004e-02
  4.6158215e-01
 -1.2833054e+00
 -7.8861088e-01
 -1.8635076e-01
 -1.2085578e-01
 -1.1581615e-01
 -1.6220991e-01
 -1.3131584e-01
 -1.1752500e-01
  9.8970056e-02
  5.4052076e-03
  8.1902087e-02
  2.7166303e-02
  5.3276259e-02
  7.9185262e-02
  7.4696168e-02
  7.8637153e-02
  1.2002844e-01
 -2.5677880e-02
  5.2934166e-02
  7.2743729e-02
  5.9403993e-02
 -7.2501041e-02
 -1.8905373e-01
 -3.6239210e-01
 -1.2218428e-01
 -2.8032985e-01
 -1.3038598e-01
  8.4459791e-03
 -1.8345563e-01
 -1.1748754e-01
  1.1984552e-01
 -2.0252936e-01
  8.2109012e-03
 -7.0833002e-04
 -3.7257761e-01
 -3.5107642e-01
  1.3015398e-02
 -1.0590359e-02
 -8.5302725e-02
  9.1512688e-03
  1.2485673e-01
 -4.4470518e-03
  4.4278421e-02
  3.3315420e-02
 -5.1180726e-01
  7.3810488e-02
 -5.1956169e-02
 -1.6964359e-02
  1.0629903e-01
 -2.4126786e-01
  2.1790473e-01
 -6.7986459e-02
  2.2151881e-01
 -8.0049716e-02
 -5.0232369e-01
  1.0134242e-02
 -3.7622478e-02
  7.3940143e-02
 -1.2769687e-01
 -2.2659820e-01
  3.3053190e-01
 -1.7027077e-01
  7.3062032e-02
  5.1577508e-01
  5.5010080e-02
  1.1042073e-01
 -1.3586654e-02
 -3.4373563e-02
 -1.5976798e-02
 -5.3346874e-03
  1.1802912e-01
 -1.4183823e-02
  1.1003733e-01
  2.1554676e-03
 -5.3291447e-02
 -2.6475921e-01
 -1.2356775e-01
  4.3413024e-02
 -2.9165735e-02
 -3.7836339e-02
  1.1033498e-01
  8.5657418e-02
  1.4963759e-03
 -2.5192660e-01
 -8.1762122e-03
 -7.2914422e-02
 -7.5445898e-02
 -3.4276882e-01
  4.1550469e-02
  1.7741142e-01
  2.3228483e-02
 -2.7780071e-02
 -8.8099778e-02
 -4.7860779e-02
 -1.1477315e+00
  7.5755953e-03
  4.2897683e-02
 -5.6192153e-03
  2.4880622e-01
 -1.5611680e-01
 -9.4985604e-02
  9.1464529e-03
  3.8589466e-02
 -3.1954598e-02
  3.9770624e-01
 -1.3868029e-01
 -1.3802142e+00
  1.1828821e+00
  1.5101073e+00
  5.5762446e-01
 -2.3236150e-01
 -1.1945028e-01
  6.3841695e-01
 -1.7304903e-01
  1.6388836e+00
 -1.1134588e+00
 -4.9325189e-01
 -1.1414416e+00
  1.8832546e+00
  4.1014722e-01
  3.4453371e-01
 -1.5012687e-01
 -7.0848137e-01
 -3.0438918e-01
  9.1734773e-01
  5.3605894e-03
 -6.1036688e-01
  1.0864782e-01
  5.0286555e-01
  5.3431816e-02
 -1.8195344e-02
  1.0477933e-01
 -1.6917581e-02
  1.0915273e-01
 -6.6572994e-02
 -1.3758245e-02
 -6.6355721e-04
 -1.0418279e-01
 -1.3351759e-02
 -1.0154071e-01
 -5.3838383e-02
 -2.3645844e-02
 -4.7686551e-02
 -1.1949912e-01
 -3.3171707e-01
 -1.6428833e-01
  1.1367053e-02
 -1.0823967e-01
 -4.1563760e-02
  1.1206226e-01
  2.9231215e-01
 -7.9868205e-02
  2.5845109e-02
  1.0148659e-01
 -1.3565129e-01
  1.6900664e-02
 -1.4257097e-01
  5.3275790e-02
  1.1145152e-02
 -5.1261652e-02
 -2.4501575e-04
 -1.2137075e-01
 -2.7512538e-01
 -1.7401634e-02
 -3.7885636e-01
  7.6044902e-02
 -8.8634364e-02
  8.7127405e-01
  3.3045772e-01
 -2.5237853e-02
 -2.9115826e-03
  7.4198633e-03
 -4.0646538e-02
  5.7390437e-02
  3.5879150e-02
  5.8522999e-01
 -6.0134149e-01
  5.0833341e-02
 -3.1004688e-03
 -6.4044185e-02
 -2.7522364e+00
 -5.3852133e-02
  2.5096942e-02
  1.9529952e+00
  1.0582542e-01
 -1.1796156e-01
 -2.2761099e+00
 -1.7420176e-05
 -3.5771046e-02
 -4.9464155e-02
 -4.7123659e-02
  1.8323439e-01
  9.9535972e-01
 -2.4265306e+00
  1.5250506e-01
  8.5091248e-02
  5.8459163e-01
  1.8404340e+00
 -6.8335235e-02
 -1.3505111e-02
 -6.1686528e-01
  1.8768029e-01
 -6.5349035e-02
 -5.3201020e-02
  1.3471830e-01
 -3.5242853e-01
  9.0633374e-01
 -9.4416672e-03
 -1.0627240e-01
 -1.0337383e-01
 -1.8687749e+00
  3.7173903e+00
 -8.1585357e-03
  1.1024703e+00
  1.3435158e-01
  2.3605455e-02
 -1.2411723e+00
 -4.4185764e-01
 -4.9423838e-01
  1.9548886e-01
  1.0589819e+00
 -4.0182341e-02
  2.2208556e-03
  9.5875785e-03
 -4.3353442e-02
  4.4220369e-02
  7.5798400e-02
  1.5176909e-01
  7.1078949e-02
  2.9368123e-02
  5.3835243e-02
 -1.6678895e-01
  5.3131372e-02
 -2.7623400e-02
 -7.1899839e-02
 -3.0832723e-02
 -1.0466418e-03
 -2.4703741e-01
  1.6938004e-01
  2.1431153e-01
  6.9719329e-02
  1.4268994e-01
  1.7878917e-01
  2.7281784e-02
 -1.0329352e-01
  3.7760623e-02
 -1.6385414e-02
  9.8260336e-02
  2.3809727e-01
  2.6732147e-02
 -1.6728556e-01
  4.1226920e-01
 -8.2521623e-01
 -3.5550568e-01
  4.8231813e-01
 -1.9579180e+00
  1.0222628e+00
 -3.7857874e-03
 -3.4942022e-01
 -1.8923768e+00
  7.4447376e-01
 -9.6336573e-01
 -1.0782802e+00
 -2.2152469e-01
 -1.0691555e+00
  5.3526159e-02
 -1.0712598e-01
 -9.1173440e-01
 -8.6360615e-01
 -1.4122311e+00
  9.6478105e-01
  7.0938784e-01
 -1.3823543e-01
 -1.0761986e+00
 -1.0504388e+00
  3.6651736e-01
  6.8919289e-01
 -4.4169370e-02
 -9.1919273e-01
  6.9364834e-01
  6.6825426e-01
  1.5619525e-01
 -1.2261822e-01
 -2.5507236e-01
  8.3738834e-02
 -3.7831351e-02
 -3.6609095e-02
  6.2926002e-02
  1.0117678e-01
  1.5808389e-01
  2.0546671e-02
 -2.5077097e-02
  2.4714783e-01
  1.4425345e-01
 -7.7574231e-02
 -2.9271822e-02
 -8.7779490e-03
  3.3020258e-02
 -2.2178449e-02
  4.3342728e-02
  1.7988700e-03
  7.6354735e-02
 -5.6460276e-02
 -1.3095739e-02
  1.2405068e-01
  5.3366430e-02
  4.2663291e-02
 -6.3004650e-02
 -2.2238737e-01
 -1.2691192e-01
 -3.5891477e-02
  9.6989907e-02
 -4.4329551e-01
  8.6757702e-01
 -3.4476295e-01
  7.0714450e-01
 -2.1171491e+00
  1.8188140e-01
  2.1259074e+00
  5.2225345e-01
  4.4491898e-02
  5.1405913e-01
  3.0338508e-01
  1.7369815e+00
 -8.0715346e-01
 -2.5307214e-01
  4.8452255e-01
 -1.2859128e-01
  3.4597306e+00
 -2.6087329e+00
  9.7685659e-01
  4.9943510e-01
 -2.1939594e-01
  4.4613538e+00
  1.5230466e-01
  6.1958283e-01
 -5.2014607e-01
 -1.4072065e-01
 -2.1817124e-01
 -1.5075932e+00
  1.4897575e+00
 -3.8007987e-01
 -6.4843684e-02
 -6.8976745e-02
 -3.8299583e-02
  6.6249765e-02
 -1.5839590e-01
  8.7152049e-02
 -3.5002600e-02
  4.2190775e-04
 -9.7171366e-02
 -1.8348409e-01
 -8.3768688e-02
  2.9729474e-02
  9.6410923e-02
 -2.0187238e-01
  2.7413391e-02
  2.0057732e-01
  8.0250017e-02
  4.3293096e-02
  9.6068002e-02
  4.1269520e-03
  2.4886559e-01
  4.1271293e-01
  9.6845686e-02
  2.4139896e-02
 -1.6081905e-04
 -1.1896285e-01
  2.3400180e-02
  5.4226514e-02
 -8.4700249e-02
 -1.5868917e-02
  2.3371507e-01
  1.2435433e-01
  1.6206939e-02
  2.0134065e-01
  5.6107867e-01
 -3.1544372e-02
  4.4807187e-01
  7.0176131e-01
  1.1187311e-01
 -1.4322318e-01
  1.8167563e-01
  2.9215854e-01
  8.3931386e-01
 -6.6119976e-02
 -7.7810228e-01
  2.0877263e-01
 -2.0276847e-01
 -9.8291241e-02
  3.1484741e-01
 -9.8562241e-02
 -2.8263582e-02
 -8.8352837e-02
 -3.0809756e-02
 -7.8847378e-02
 -1.1256991e-01
  1.4422841e-01
  8.2328886e-02
  2.0810437e-01
  5.2299088e-01
 -4.9630105e-01
 -2.6123232e-01
 -1.5098347e-01
 -7.6464685e-03
 -3.7357816e-01
 -3.2533887e-01
  2.0552186e-02
  4.0573265e-02
 -1.3461174e+00
 -3.6975989e-01
  2.6316425e-01
  8.8488199e-02
 -5.8972901e-01
 -4.1408494e-01
 -2.6954716e-01
  1.3524874e-02
 -4.2151302e-01
 -3.9573666e-01
 -1.9891313e-01
  3.8316730e-02
 -1.5146777e-01
  1.3212141e-01
  2.0272186e-01
  1.4842682e-01
  8.8666871e-02
  1.1707558e-01
  1.3492930e-02
 -3.5046804e-01
 -9.3770422e-02
 -3.6553159e-02
  1.4141650e-01
  1.6959594e-01
  1.0224503e-01
 -4.7163144e-02
 -2.1023683e-03
  7.1847387e-02
  2.7183652e-02
 -6.3102648e-02
  4.5763779e-02
 -6.2936300e-01
 -1.3743114e-01
  4.8543122e-02
 -1.2695177e-01
 -3.1826424e-03
 -5.9688479e-02
 -8.1328647e-03
 -9.3251869e-02
  1.1948628e-03
  1.8399689e-02
  6.1037514e-02
  1.5708342e-01
 -1.5042382e-03
 -5.5540171e-03
  6.5986491e-03
  8.6463191e-02
 -8.8688610e-03
  1.0862644e-01
  4.2904204e-01
 -2.2438917e-02
 -5.3974956e-02
 -4.9011309e-02
  3.8787644e-02
  1.0992507e-01
  2.7668685e-01
  2.4689820e-01
  1.2621206e-01
 -7.3528081e-02
  9.4535954e-02
  1.7308395e-01
  2.8337445e-02
  1.6189641e-01
  1.8954961e-02
 -1.9587982e-01
 -1.9284798e-01
  1.2002424e-01
  6.9228873e-02
 -5.0627820e-02
  5.9317164e-03
 -9.4241619e-02
 -3.5304051e-02
 -3.3087141e-03
 -1.5059321e-01
  1.4716248e-01
 -3.2284524e-02
 -4.3774724e-02
  1.1214816e-01
 -6.6964768e-02
 -7.9275416e-03
 -6.5063156e-02
  7.5175650e-02
 -1.4252901e-02
  4.8246527e-01
  1.8744203e-01
  2.9111817e+00
  3.9472148e-01
 -1.7591169e-01
  2.7598092e-02
  1.3899812e-01
 -3.1390095e-01
 -4.2374820e-02
 -2.5255719e-01
 -3.4869093e-01
  8.6775339e-01
 -1.6192724e-01
 -2.2465782e-02
 -8.2574975e-01
  5.5397171e-01
 -5.8250070e-01
 -3.3335942e-01
  4.0937837e-02
  1.9713564e-01
  1.7316397e+00
 -1.8051581e-01
 -6.4945942e-01
  1.0483547e+00
 -2.2574396e-01
 -1.5674238e-01
  7.1062362e-01
  1.4930654e-01
 -4.7308707e-01
 -3.3213222e-01
  1.0754353e-01
  1.4993918e-01
 -1.0572179e-01
 -6.7216933e-02
 -1.7339793e-01
  1.5039071e-01
  2.1804108e-03
 -2.1028295e-01
 -3.6267105e-02
 -3.5583574e-04
 -2.3406399e-02
  1.5316579e-02
 -2.6315242e-01
  2.0436257e-01
  2.7396325e-02
 -1.8256150e-02
 -1.2748677e-02
  7.6497912e-02
  3.8571380e-02
 -1.3319432e-02
  1.5578735e-01
 -1.7708844e-01
 -4.8794346e-03
 -2.7170189e-02
  4.2668395e-02
  6.2807478e-02
 -9.8338790e-02
  9.0012155e-02
 -9.6774705e-02
  4.9016852e-02
  1.0406477e+00
  1.7091165e-01
 -1.0994649e-01
  1.0863403e+00
  7.2078042e-02
  1.9169753e+00
  2.5210652e+00
  4.5320034e-01
 -2.3252831e+00
 -1.4996562e+00
  7.4443638e-01
 -3.6826685e-02
 -1.0053009e+00
 -5.2893031e-01
 -9.3727303e-01
 -1.3989964e+00
  1.3206244e-01
  3.3155474e-01
 -1.6702852e-01
  9.8195589e-01
 -7.7596855e-01
  5.9337771e-01
  1.3270363e+00
  2.1590588e+00
  4.3623120e-02
 -5.6207520e-01
  5.6422746e-01
 -7.8541070e-02
  1.0535381e+00
  1.3106622e-01
  2.5721375e-02
 -2.6099604e-01
 -1.2510448e-02
 -3.5145375e-01
 -2.0395067e+00
 -8.3007649e-02
  1.8275508e+00
 -1.1692167e-01
  4.2894971e-01
  3.9532891e-01
 -2.0641692e-01
  2.4152361e-01
  2.9043484e-01
 -3.9699480e-01
 -1.7421701e+00
 -3.8338429e-01
 -8.3148181e-02
 -2.9159039e-01
 -1.6169698e+00
 -3.2108185e-01
 -1.7735830e-01
  8.4396225e-01
  5.6473166e-02
 -4.3685633e-01
 -2.5587678e-01
  2.2882798e-01
  5.9825420e-01
 -2.4180974e-01
 -9.2147404e-01
 -3.2861248e-01
 -3.4555522e-01
 -4.7002514e-03
  4.0479684e-01
 -3.0760825e-01
 -5.3885631e-02
  2.0779698e-01
  1.9810457e+00
  4.2771614e-01
 -1.7786478e+00
  1.0770249e-01
 -6.6731668e-01
 -2.5553250e-01
  6.1406143e-02
 -6.1186153e-01
  2.8928810e-01
 -1.3694752e+00
 -3.4035236e-01
  4.4829268e-02
 -7.0585102e-01
 -7.4414790e-01
 -2.1646746e-01
  3.3315486e-01
  2.7528116e-02
  4.6020221e-02
  1.5503190e-01
 -2.7903769e-02
 -3.5590860e-01
  1.6312559e-01
  4.9560465e-02
  3.8590834e-02
 -7.8064012e-03
 -1.5807435e-02
  1.3260080e-01
  5.1429637e-02
  4.2615481e-02
 -7.5117990e-02
 -3.9193876e-02
  7.3577061e-02
 -1.9460773e-01
  3.8734939e-02
 -2.6854095e-01
 -1.2681155e-01
  2.2247670e-02
  2.8626008e-02
 -4.8019342e-02
 -7.9238243e-02
 -1.1129458e-02
 -3.9664533e-02
  6.2328801e-02
 -8.6024068e-02
  2.8398657e-01
  3.6264884e-03
  8.5700765e-02
 -3.7660588e-02
 -1.3592060e-03
 -3.8272399e-02
 -3.8618657e-03
 -2.2809016e-02
  3.0437715e-02
  1.0015493e-01
 -7.7810693e-01
 -1.8011436e-01
 -1.6129510e-01
 -1.2697834e-01
  3.1480962e-01
 -6.3157070e-01
  1.4800072e-02
  2.6595271e+00
  9.1566426e-01
 -4.6137026e-01
 -1.9092157e-01
  1.0447083e-01
  9.9937069e-01
 -4.4143081e-01
  9.1020493e-03
  7.7046239e-01
 -2.4741562e-01
 -1.3140862e-01
 -8.7989382e-03
 -8.9488751e-01
  1.0403857e+00
  1.5824944e-01
  5.4281652e-02
  2.4841239e-01
  3.3139862e-02
 -1.8372488e-01
  4.0436584e-01
  1.7882928e-01
  1.3090134e-02
 -7.0715815e-02
 -4.8576098e-02
 -4.8319258e-02
  2.8548025e-02
 -3.5385248e-01
  4.1161978e-01
  2.1138033e-01
 -1.7356986e+00
  2.3674065e-01
 -9.0396690e-01
 -7.3650450e-02
  4.6612048e-01
  2.5578865e-01
  1.8913749e-01
 -8.3129592e-02
 -8.8551696e-03
  1.5865635e+00
  1.5998716e+00
 -2.1140112e-01
 -1.4259995e+00
 -5.2934486e-01
  3.4734160e-01
 -2.8547961e-01
  2.3870114e-03
 -6.7694163e-01
 -9.0350991e-01
 -4.1135752e-01
 -1.6188233e+00
 -6.6519059e-02
 -1.0705341e-01
 -7.6952755e-02
  2.2718158e-01
  1.4647162e-01
  8.1841171e-02
 -2.3209972e+00
  1.1450428e+00
 -1.4354068e-01
  6.1617059e-01
 -3.0437076e-01
 -1.7918710e-01
 -3.2215121e-01
  2.8668183e-01
  4.2531306e-01
  3.4112448e-01
 -1.7267203e-01
  4.6709649e-02
 -3.2707816e-01
 -3.3714417e-01
 -6.7988956e-01
  4.8997191e-01
 -7.9317600e-01
 -9.2983581e-02
 -6.2971818e-01
 -1.8687783e-01
  7.4329339e-02
 -1.2891912e+00
  5.1552004e-01
  1.7815517e+00
 -1.7207073e-01
  1.1155413e+00
  1.1025977e+00
  2.4630760e-01
  6.3450508e-02
 -1.0228703e-01
  1.0396010e-01
  2.4851263e-02
 -5.2298598e-02
  3.9840072e-01
 -1.4789367e-01
  1.7088586e-01
  1.6126670e-01
  1.0817260e-02
 -1.1978970e-01
 -2.3247100e-02
  4.2125753e-01
  1.0014519e-01
  3.4950461e-02
 -3.6660570e-03
 -9.6305184e-02
 -3.4556681e-01
  5.2875403e-02
 -3.5096850e-02
 -1.4598104e+00
 -1.6504890e-01
 -6.1540645e-02
  6.7043923e-02
 -3.4412194e-02
  8.2270823e-02
  1.2492792e-01
  2.5644055e-02
 -1.3623863e-01
  2.0070873e-02
 -1.5412940e-01
  2.1495305e-02
 -2.0359619e-01
 -6.9298908e-02
 -4.2266345e-01
  6.4808047e-01
 -5.5999257e-02
  2.7415547e-01
  1.2189766e-01
  6.6221386e-02
  3.9462236e-01
 -4.9450907e-01
 -3.2446781e-01
 -3.1826109e-02
  2.5655514e-01
 -6.6359651e-01
 -6.9225174e-01
 -1.1242841e+00
 -3.6574014e-02
  4.0520236e-01
 -1.2258439e+00
  1.3172061e-02
 -5.0657886e-01
  1.4088851e+00
 -2.1197479e-02
 -3.5010698e-01
 -7.9753570e-02
 -1.4230108e-01
 -1.0887936e-03
  9.6402049e-02
  5.8950710e-01
 -1.3794513e-01
  4.3384093e-01
  9.6263457e-03
  1.3848261e-02
 -2.9093084e-01
  8.9974493e-01
  5.1477599e-01
  9.5012176e-01
  2.5903416e-01
 -8.2424134e-01
  5.0533879e-01
  9.5831418e-01
  4.0958411e-01
 -3.9442211e-01
  4.9359355e-02
  2.8497016e-01
  9.9483770e-01
 -2.3407015e-01
 -1.2394105e+00
 -2.0942783e+00
  1.0798025e+00
 -4.5255953e-01
  7.6921767e-01
 -1.4432239e-02
  3.6539134e-01
 -8.6361788e-02
 -2.5210461e-01
 -8.2943372e-02
 -2.2892484e-01
  7.5500114e-03
 -8.0317490e-02
  4.4475780e-03
 -8.8317245e-02
  6.0187574e-02
  8.5721129e-01
  8.5037492e-02
 -9.9587816e-01
 -2.2436231e-02
 -2.3481583e-02
  6.3635118e-02
 -4.8482668e-02
 -1.0859205e-01
 -4.1823801e-01
 -7.8121354e-03
  1.4492525e-01
  1.1853100e-02
 -4.6795439e-02
 -4.2093423e-04
 -4.4400223e-02
  6.3072573e-03
 -2.4102627e-01
  8.8705607e-02
  1.0395158e-01
  1.6983025e-02
 -2.5033852e-01
  1.2521946e-01
  6.2115159e-02
 -7.6874137e-02
  1.9663658e-02
  8.5218853e-01
  1.7413084e-01
 -1.1987178e+00
 -1.6880035e+00
  2.0909839e+00
 -3.0739000e-01
 -3.3975074e-01
  4.1436043e-02
 -1.1717234e-01
  1.8402050e-01
 -1.4833127e+00
  6.0715741e-01
 -5.8900010e-02
  6.8390101e-02
 -4.0883869e-01
 -1.4690652e+00
 -1.7485729e-01
 -6.0959178e-01
  1.2985203e-01
 -9.9286705e-01
 -6.9470811e-01
 -8.2892226e-03
 -2.7910931e-02
 -1.3149405e-01
 -1.8069713e-01
  4.0896210e-01
  1.0433830e-01
  3.8285750e-01
 -3.0664682e-01
 -1.4656766e-02
 -3.3843633e-02
  7.1317717e-02
 -1.6077638e-02
  1.5087613e-02
  2.6223850e-02
  2.8208969e-02
 -8.4068459e-03
  9.0311855e-02
 -4.3250885e-02
 -1.4946774e-01
 -1.7020005e-01
 -8.2513452e-02
 -2.3086785e-01
 -1.2703311e-01
  5.1286340e-02
 -7.4640058e-02
  2.0466093e-02
  5.5008806e-02
 -3.0460652e-02
  2.4627560e-01
  9.2882179e-02
  4.8100520e-02
  4.4976994e-02
  1.0628647e-01
  1.6497032e-01
  7.9386113e-03
  1.7504540e-01
 -2.4484416e-02
 -1.3300890e-01
  2.2243368e-03
  2.2122242e-01
  3.9186045e-03
  1.5498895e-02
  8.1047952e-01
 -3.5521286e-03
  2.2984235e+00
  6.1688739e-01
  9.1042465e-01
 -3.8455173e-02
 -1.3634811e-02
  1.8701009e+00
 -6.1192263e-02
  3.9084488e-01
 -8.8176401e-03
 -2.1784632e-02
  1.0029689e-01
  3.3085635e-03
 -1.8931563e-01
  1.0654535e-01
 -4.9182042e-01
 -3.7440706e-02
 -4.7873292e-02
 -7.8579642e-02
 -2.1095340e-01
 -5.2100237e-02
 -2.2718411e-02
 -1.9129315e-02
  1.5057680e-01
  1.2766260e-01
  1.4519460e-01
  1.0953323e-01
  1.1827681e-01
  2.1438535e-02
 -2.4201147e-01
  7.3915340e-02
  1.0182273e-01
 -5.8262065e-02
 -3.5303589e-02
  1.0047909e-01
  8.2312189e-02
 -4.7133222e-02
 -9.7545184e-02
 -2.1542320e-01
 -1.3904749e-01
 -1.3516152e-01
 -5.6141442e-01
 -3.5943687e-02
  4.8340347e-02
  4.0436503e-02
  4.4522133e-02
 -1.2709415e-01
 -2.4661809e-02
 -3.1055310e-01
 -4.4115356e-01
  4.4214083e-03
 -1.7648168e-01
 -7.4403897e-02
 -1.1101099e-01
 -8.2849329e-03
 -1.2558464e+00
 -1.8373816e+00
  3.0897182e-01
  1.1369220e-01
 -6.4655639e-02
 -3.2571590e-01
 -1.6353219e+00
  1.4645115e-01
 -1.1087766e+00
 -1.3578257e-01
  7.7947491e-01
 -5.0493139e-01
 -2.1823496e-01
  4.1639145e-02
 -7.1886450e-01
  9.4435126e-01
 -2.8820065e-01
 -3.7556040e-01
 -2.9625925e-03
 -3.3325794e-01
  4.9096897e-02
 -6.6068834e-01
 -4.2838582e-01
  1.0702758e-02
 -6.7486137e-01
 -6.2732421e-02
  7.5015467e-01
  8.3216049e-02
  7.9829574e-01
 -2.0385599e-01
 -5.7744811e-04
 -9.3874964e-04
  4.1536279e-02
  9.2456758e-02
 -1.0661614e-02
 -2.9638810e-02
 -5.6906227e-02
 -2.0964013e-02
 -4.3193262e-02
 -6.1243083e-02
  6.9857158e-02
  4.8491010e-01
  2.2230048e-03
  1.3685535e-01
 -1.2275159e-01
  2.1357464e-02
  1.2546857e-02
  1.6216123e-01
 -4.7041131e-03
 -7.6310322e-02
  2.5549814e-01
 -1.8381348e-02
  5.1841184e-02
  1.6567698e-02
  7.0526272e-02
  8.0585971e-02
  9.7231835e-02
  1.8875791e-02
 -3.8418051e-02
  5.9789154e-03
  5.3483147e-02
  5.0232276e-02
 -3.2615442e-02
 -5.8566932e-02
  1.4844580e-01
  8.6618803e-02
  8.5574284e-02
  5.1590133e-01
 -1.4320124e-02
 -7.5952575e-02
 -2.9165927e-02
 -1.0927284e-02
 -2.9794298e-02
 -7.3289252e-03
  8.5702322e-02
 -1.3238302e-01
  1.4908727e-01
 -2.2877408e-03
 -7.1922489e-03
 -1.0401568e-01
 -5.8621146e-02
  5.6835368e-02
  8.9883573e-02
  8.4882863e-02
 -7.7867813e-02
  1.0148134e-01
  2.1287780e-02
  3.1643398e-02
 -4.2179585e-03
  2.9025225e-02
  1.5116428e-01
  3.4118870e-01
  4.9645964e-02
  5.5712825e-01
 -3.2446063e-01
 -2.0648916e-01
  1.3181223e+00
  2.7833447e-01
 -6.0612410e-01
  4.1736510e-01
  1.3742062e-01
 -4.7377408e-01
  1.3762659e-01
 -4.2559326e-01
  9.1167549e-03
 -2.0072345e-01
 -1.9180856e+00
  6.5732591e-02
 -1.1481313e+00
  4.4070158e-02
 -2.3873068e-01
 -8.6271666e-02
  8.7100916e-02
 -5.8324337e-01
 -2.8318667e-01
  3.6069164e-03
 -3.3811259e+00
 -8.3472813e-03
 -3.0487292e-02
  6.1249930e-02
 -2.0280261e-02
 -1.3280945e+00
 -3.1799193e-02
 -4.0822923e-01
 -5.3420570e-02
  1.0623991e+00
 -9.9651301e-01
  9.0830052e-01
  2.2051695e-01
 -8.2165319e-01
  5.2663401e-02
 -1.2262110e+00
 -1.9360161e-01
 -1.2993603e+00
 -1.1057369e+00
  1.6026400e+00
  5.9765562e-02
 -1.3379864e+00
 -2.2371002e-03
 -9.7544837e-01
 -9.5612919e-01
  4.1065272e-02
  1.4721251e-01
 -1.3843252e-01
  5.5775011e-01
  1.0968342e+00
  2.3647870e-01
  1.3609264e-02
 -7.7784099e-02
  1.1113569e+00
  2.7329249e-02
 -1.5726116e+00
 -1.0724693e-01
 -5.6389856e+00
 -9.8175474e-02
  6.0132611e-01
 -1.1419712e+00
 -1.2578058e-01
  1.4344710e-01
  1.4126176e+00
  3.0078676e-03
 -1.9929224e+00
 -7.3029929e-01
  1.2151338e+00
 -3.4811098e-02
  1.0323703e+00
 -5.4832715e-01
 -1.6599288e+00
  3.2828516e-01
 -6.9631034e-01
  4.3368652e-01
 -1.7682357e-01
  1.3830853e+00
 -4.7168270e-02
 -4.2335278e-01
  3.5901198e-01
 -1.1929666e+00
  1.0113367e-02
 -1.3886555e-01
  5.5016381e-01
 -1.7364029e+00
 -1.9597907e+00
 -2.3164806e-01
 -8.2526453e-02
 -3.3620012e-01
  1.1904696e+00
 -4.7144208e-02
  1.9930407e-01
  5.1812410e-02
 -9.1459811e-01
 -8.2603619e-03
 -2.4525484e-02
 -1.5220462e-01
 -6.2663774e-03
 -1.4043748e-01
 -3.0843089e-03
 -1.1659237e-01
 -1.9980787e-01
 -8.3185077e-02
 -3.6999640e-01
 -3.4631678e-01
  1.1109672e-01
  6.0404126e-02
  1.2560610e-01
  8.5237660e-02
 -5.9675735e-01
  1.2283751e-01
 -3.0875739e-02
 -3.2234490e-01
 -2.8045887e-01
 -1.9216102e-01
  2.8670698e-02
  1.0741721e-01
  1.6569144e+00
  2.1377925e-02
  4.8489921e-02
 -1.9653529e-02
  4.6177691e-01
 -2.6375958e-01
  2.4811160e-02
  7.4002594e-02
 -5.6862373e-02
 -1.2018925e-03
 -8.0877028e-02
  3.0192819e-01
  8.2267588e-04
 -7.9069473e-02
 -7.0923893e-04
 -5.1914193e-02
  1.5833099e+00
  3.5615068e-02
  7.4718692e-03
 -1.1741011e-01
  3.3707131e-02
  7.5507469e-02
  1.5294943e-02
 -4.7762685e-02
  6.2234312e-01
 -8.3378285e-02
 -2.4220102e+00
 -9.4301850e-02
  1.5411444e-01
 -1.4985847e-01
 -5.4826690e-03
  3.5956632e-03
 -6.0696477e-01
 -3.8841583e-02
 -9.6425913e-02
 -2.3258068e-01
  1.8919410e-01
 -7.5781077e-02
 -5.7895169e-02
  3.6751050e-01
 -1.0581590e+00
 -7.0682736e-03
  4.9782444e-02
 -7.3116839e-01
 -2.1651562e-01
 -9.1394909e-02
  4.2984441e-02
 -2.3476969e-01
 -1.5185627e+00
 -6.4235777e-01
 -3.4428018e-01
 -2.3514421e-01
  7.9509509e-01
  2.5986832e-01
  2.8337261e-02
  2.8513446e-01
 -1.5542152e+00
 -2.1364304e-01
  7.1404681e-02
 -8.4664327e-01
 -3.9108732e-01
  7.0583844e-03
 -2.7927883e-02
 -4.2484235e-03
  5.2972108e-01
 -1.9246896e-01
  5.2803434e-02
 -1.7133906e-01
 -5.6610521e-02
  3.7266202e-02
 -4.4751916e-02
  9.5082810e-03
  4.7553763e-01
  3.4975111e-02
  3.3290546e-02
  9.3942117e-03
  1.3587560e-01
 -1.0292005e-02
 -7.0644349e-02
 -1.7964479e-01
 -1.4581214e+00
 -3.3051133e-02
  1.5198787e-01
  3.5917576e-02
  1.5168834e-01
  1.5376303e-01
  3.4324005e-03
  1.4462300e-01
  2.1024409e-01
  3.5180703e-02
  1.7346289e-02
  4.0610829e-01
  9.4265181e-01
  6.4645007e-02
 -1.2357244e-01
 -2.2353986e-01
  5.5841908e-02
 -4.9815871e-02
  4.5975588e-02
 -1.1111754e-01
  8.2192528e-01
 -1.4580165e-01
  5.8750674e-02
  3.2280990e-01
 -1.8032064e+00
 -2.1906249e-02
 -1.1818445e-01
 -2.0958817e-01
 -1.7680303e+00
  9.2183203e-02
  7.0171319e-02
 -1.4620206e-01
 -8.4225321e-01
 -1.9408496e-01
 -5.4072805e-02
 -1.3231508e+00
  3.3733052e-01
  1.2773875e-02
 -1.8254296e-01
 -1.3842501e-02
 -8.0721813e-01
  3.2850990e-01
 -9.8097183e-02
 -8.6119545e-01
 -9.6200097e-01
 -1.4263627e-01
 -3.7350114e-02
 -3.4094490e-03
  1.3154238e+00
  1.6869333e-02
  3.7482500e-02
  2.0239067e-01
 -4.8845377e-02
  1.6382013e-01
  6.0819723e-02
 -3.0247176e-01
 -1.1879331e-01
  1.6014200e-01
  5.7321664e-02
  1.4703785e-02
  4.7589809e-01
 -2.6963884e-01
 -1.5422195e-01
 -3.4595466e-01
 -1.8554455e+00
 -4.1472625e-02
  5.0496864e-01
  8.5868664e-02
  5.6697920e-02
 -1.5274307e-02
  2.1680153e-03
 -1.3963817e-01
  3.6397293e-02
 -2.4413669e-01
 -1.0732558e-01
  3.4843019e-01
  8.7817729e-01
  3.0266473e-01
  8.8820942e-02
 -1.2908691e-01
 -7.4497694e-01
 -7.2476842e-02
 -1.0545363e-01
 -8.0914414e-03
  1.5495684e+00
  8.3130799e-02
  2.3820009e-02
  4.1611481e-01
 -5.0244027e-01
 -1.9538600e-02
  6.6959843e-02
 -7.9546077e-03
 -2.0890059e-01
 -4.2497644e-01
  1.7398766e-01
  8.1512831e-02
 -1.3483031e+00
 -3.6353540e-02
 -7.0891209e-02
 -1.1603741e-02
 -1.3237633e-02
  3.2612985e-01
 -2.6732185e-01
 -8.8869894e-01
 -9.9435121e-01
 -1.0846195e-01
 -4.6375990e-02
 -5.7861414e-02
  5.8114094e-01
 -7.0050426e-02
 -1.8442851e-02
 -1.0748912e-01
  5.4233845e-02
 -1.4339697e-01
  3.0535612e-02
 -2.2118745e-02
 -1.8131551e-01
  1.3548534e-01
  4.0014904e-02
 -8.5802579e-01
 -3.0338736e-02
 -6.7919724e-02
  5.7361379e-02
 -1.8772137e-01
  1.9974941e-02
  8.9926489e-02
 -1.9849330e-01
  2.7441365e-01
  3.1037837e-02
 -2.7323196e-02
 -3.3832163e-02
 -1.1319745e-01
  1.2931094e-01
  1.3694511e-01
 -1.2219002e-02
  3.1412039e-02
 -1.6448522e-01
 -4.0647022e-02
  2.3438250e-01
 -1.8030094e-01
 -4.2014620e-01
  2.6252393e-02
 -1.0762082e-01
  5.1411018e-02
  5.6553328e-01
 -3.5666544e-02
 -6.9871686e-02
  3.1243769e-02
 -2.1162876e-01
  2.4407172e-01
 -2.5271203e-02
 -1.7657258e-02
 -1.2737220e-02
  2.5736621e-01
 -3.8190711e-02
  1.4463895e-02
 -1.0206915e-02
 -1.3527397e-02
  1.5143389e-01
 -2.9242322e-01
 -7.2928771e-02
 -3.7785977e-02
  1.8385901e-01
  7.0449650e-02
 -1.0230590e+00
 -1.3001263e-01
  1.4248574e-01
 -3.5487711e-01
 -1.1617833e+00
 -8.8773265e-02
  1.1387336e-01
  2.1933262e-01
 -2.7050132e-01
  2.8561661e-01
 -9.0387329e-02
 -3.1161153e-01
 -2.0018830e+00
 -2.8221322e-02
 -2.3358732e-01
 -3.0263055e-02
 -1.2588964e-01
 -7.1787778e-03
  1.0733400e-01
 -9.5774138e-01
 -5.9057988e-02
 -2.3962492e-01
 -4.8548177e-02
  2.7927902e-02
 -5.7738936e-01
  2.0140696e-02
 -1.6959053e-02
 -3.3883244e-01
  6.3138098e-02
 -6.7814536e-02
  1.4089909e-02
  8.0634281e-02
  4.1393879e-01
 -1.8500018e-01
  1.1368101e-01
 -7.5930312e-02
  3.8261646e-01
 -4.0690433e-02
 -6.9930226e-02
 -1.4973557e-01
 -6.9973713e-01
 -4.1603558e-02
  1.8497364e-01
  1.4743347e-01
 -1.8602560e-01
 -4.9385037e-02
 -8.5893244e-02
 -1.1636326e-01
 -8.5428405e-01
 -1.7933507e-01
 -5.8362897e-02
 -1.2392220e-02
  4.4647893e-01
  6.1916526e-02
 -7.6889895e-02
 -2.1426716e-01
  2.6842961e-01
  9.8804548e-02
 -1.0881434e-01
  5.1825836e-02
 -3.4215666e-02
 -1.1020692e-01
 -6.8866588e-02
 -1.7771821e-02
 -6.5716112e-01
 -4.3775607e-02
 -1.8592656e-01
 -1.6464956e-01
 -9.6978861e-01
 -1.7677004e-02
  1.1113593e-03
 -3.8464505e-02
  9.6587397e-02
 -1.2263018e-01
 -2.3450653e-01
  6.6947162e-02
  1.1873750e-01
  5.9329502e-02
  8.3588064e-02
 -1.4582442e-01
  2.2840777e-01
 -7.8591600e-02
 -4.2504497e-02
 -3.2653055e-01
  7.7578127e-02
  3.6078934e-02
  1.0671716e-01
  2.0169470e-01
 -1.7046545e+00
 -1.3477875e-01
  7.2386339e-02
 -6.5569393e-02
 -4.2424198e-02
  3.9529499e-02
  3.9516903e-02
 -1.3744797e-02
  3.0655226e-02
 -1.6245211e-02
  2.9398279e-02
 -2.9513544e-01
  2.2941986e-01
 -2.2822887e-02
  2.4114354e-01
 -3.3202577e-01
  2.1556403e-01
  2.8301215e-01
  3.8382292e-02
 -3.2047972e-01
  2.6141731e-02
 -7.2034493e-02
 -9.3044400e-02
  1.1846317e-02
  2.7040809e-01
  6.2701732e-02
 -5.1161033e-01
 -2.4674399e-01
  3.0685902e-02
 -9.5437281e-02
 -5.9188534e-02
 -5.4808378e-01
 -2.3489943e-01
  2.4624575e-02
 -5.2198343e-02
  1.3329193e-02
  5.6905104e-03
 -3.6866050e-02
 -2.0813413e-02
 -1.7637365e-01
 -5.6083697e-01
  5.8882460e-02
 -3.7514735e-02
 -7.7146310e-01
 -4.0063566e-01
 -5.4962765e-02
  1.5176946e-01
  1.7175736e-02
  8.4781699e-02
 -5.7535803e-01
 -7.4961168e-01
  4.2235691e-02
  8.1452292e-01
  8.0253221e-02
 -1.0294878e-01
  1.8380230e-02
 -1.4740801e+00
  7.8754976e-02
 -3.8431630e-02
 -2.5806293e-01
  6.1627895e-01
  3.7006725e-02
  1.0889661e-02
  1.2354842e-01
  3.4875005e-01
  5.0342843e-02
  9.2273250e-02
 -1.8136545e-01
  6.2216714e-02
  1.6925097e-02
 -1.7788851e-01
 -3.4538144e-01
 -2.0701205e-02
  9.2594817e-02
 -1.4790818e-01
 -6.3741636e-01
 -1.4498523e-01
 -1.6781958e-02
  7.1399622e-02
  4.4204663e-02
 -5.5138599e-02
 -3.1131953e-01
 -6.2613532e-02
  1.3198172e-01
 -5.1166201e-01
  1.1852020e-01
  4.1107062e-02
 -2.4032474e-03
 -5.3205276e-01
 -6.9224085e-03
  1.6838467e-03
 -8.1588570e-03
  4.6416932e-01
  4.5684975e-02
 -9.7435554e-03
  3.5622131e-02
  2.9422566e-01
  5.2592964e-03
 -6.9054767e-02
  3.5256988e-01
  1.3310009e+00
  7.3332554e-03
 -3.3434483e-01
 -1.4081739e-01
 -1.1867446e-01
 -5.7104900e-02
 -1.3673259e-01
 -5.3313643e-02
  8.9388669e-01
  8.3851561e-02
 -6.0372319e-02
  1.8462865e-02
  5.0307542e-01
 -7.1326114e-02
  2.0068814e-01
  1.4023134e-01
 -5.2567190e-01
  5.0252147e-02
 -1.4759601e-03
  2.3089326e-03
 -1.1530726e+00
  9.9496640e-02
 -2.1570650e-01
 -3.7997207e-01
 -4.8686972e-01
  5.2153338e-02
  8.8327214e-02
  3.6395956e-02
  9.7618692e-02
  6.6580236e-02
 -9.3160994e-02
 -5.3799880e-01
  1.8353988e-01
 -1.2103083e-01
 -3.4576264e-01
 -1.4994740e-01
 -1.6107700e+00
 -6.9345437e-02
 -1.5363324e-02
 -1.1007202e-01
 -5.6120556e-02
  7.8986607e-02
 -5.1822793e-02
 -3.3336878e-01
 -3.9520636e-02
 -2.8319962e-02
 -8.3604097e-02
 -5.8972247e-02
 -3.3795622e-03
  6.0703360e-02
  1.1268640e-01
 -3.6949709e-02
  8.0812886e-02
 -1.5382108e-02
 -2.9895983e-03
  1.2418966e-01
  6.7055523e-01
  7.9468451e-02
 -8.0337701e-03
 -1.8947003e-02
  5.1584393e-01
 -4.6406806e-01
  5.8930084e-02
  8.3117783e-01
  8.4306709e-02
 -3.3199701e-02
  4.5821406e-02
 -1.2887378e-01
 -1.0980796e+00
 -1.6672391e-02
  1.8147016e-02
 -2.8298458e-01
  8.5065520e-01
  1.3163373e-01
  9.6127689e-02
  1.6729079e-02
 -6.9277132e-01
 -9.3029710e-03
 -5.5696450e-02
 -2.9934394e-01
  1.8938605e-01
  3.4390867e-01
  8.5270017e-02
  4.9716514e-02
 -1.6049672e+00
 -2.8876092e-02
 -8.1755906e-02
 -4.1079676e-01
 -6.5455216e-01
 -4.2976886e-02
 -3.6479022e-02
 -6.7083668e-03
 -2.2603257e-01
  2.5926713e-02
 -1.2384170e-02
 -1.0838410e+00
 -1.5083475e+00
  7.4592583e-02
  8.7112181e-02
 -7.8359574e-02
  1.1659311e-02
  1.4055283e-02
 -1.0641650e-01
 -1.2877849e-01
  1.3143958e-01
  1.0193262e-02
  5.9472229e-02
  5.1539457e-01
  1.5972720e-01
  4.4922110e-01
 -2.5450747e-02
  9.9780010e-03
 -8.6435026e-01
 -3.9396189e-02
 -1.6235629e-01
 -5.2784465e-02
 -2.7621666e-02
 -1.5953742e-02
 -3.3987977e-02
  1.6726455e-01
  9.6461391e-01
 -1.9535066e-01
 -5.2315697e-02
  1.5564050e-03
 -2.1172011e-02
  1.2086648e-02
 -3.0824048e-02
  4.4289619e-02
  1.2030814e+00
  1.2033095e-01
 -1.7802240e-01
  1.8538767e-01
 -1.6603341e+00
 -3.9344177e-02
  9.9337101e-02
 -1.1392943e-01
  6.7070484e-02
 -2.3761824e-01
 -3.7393317e-02
 -3.2572046e-01
 -4.9839530e-02
  1.7137738e-01
 -4.9965095e-02
 -3.0336809e-01
  6.5144777e-01
 -5.4034099e-02
 -6.4206111e-01
 -3.3310030e-02
 -8.7082344e-01
  2.9833892e-02
  6.1811432e-02
 -4.3828964e-01
 -2.5001267e-02
 -3.3710040e-02
  2.5884513e-02
  3.7729082e-01
  6.5750122e-02
 -1.4622656e-01
 -9.4773285e-02
 -2.6784289e-01
 -4.2543384e-01
  3.8608022e-02
  1.3208473e-01
 -3.9048262e-02
  5.6077701e-01
  2.6606452e-02
  4.5506477e-02
 -8.7745465e-02
 -4.4203699e-01
  1.4648905e-02
 -3.1721525e-02
  5.0992981e-02
 -5.4702884e-01
  2.6824011e-02
  5.9769940e-02
 -1.4743432e-01
  2.5398090e-01
 -1.4642286e-02
  1.7193335e-01
 -2.3794271e-02
  1.2512212e-02
 -6.8238981e-02
 -1.8883730e-01
  3.2255631e-03
 -3.2688587e-03
  6.7156561e-02
 -4.9741060e-02
  4.2594161e-02
 -6.5851368e-02
 -1.0440592e-02
 -1.8574520e-03
 -4.3782510e-02
 -3.3651724e-02
 -3.9531790e-02
  5.7277963e-02
 -5.2700389e-02
 -3.5701826e-02
 -2.6138216e-01
 -4.2723978e-01
 -2.9202169e-01
  4.0935148e-02
 -1.3740644e-01
 -6.1188810e-02
 -4.9912162e-02
 -1.1607130e+00
 -5.9670411e-02
 -5.0349571e-02
 -2.7562634e-03
 -1.9161892e+00
 -2.9840657e-01
 -6.9837369e-02
 -4.6187509e-02
  2.3072092e-01
  2.8060675e-02
  6.5215424e-02
  7.1410579e-03
 -1.2663299e+00
 -3.0277982e-01
  7.8834519e-02
  7.3871417e-03
  8.3048433e-01
  1.1395691e-01
 -1.1692057e-02
  1.4912198e-01
 -1.4986596e-01
  4.5151588e-02
 -4.1205037e-02
 -7.9516377e-03
  1.0723479e-01
  1.3310909e-01
 -5.3619508e-02
  1.7059578e-01
  1.2446392e-01
  8.0790006e-02
  5.2914225e-02
  1.2549450e-01
 -1.0260891e-01
  3.8521364e-01
 -4.2046466e-01
 -1.6362244e-02
  3.2447097e-01
 -7.7228200e-01
  8.0598056e-02
 -1.3008550e-01
 -4.6292756e-02
 -2.6987448e-02
  2.1780439e-02
  7.3430903e-02
 -1.0194317e-01
  4.0114805e-02
  5.2225020e-02
 -6.0913201e-02
  2.1317888e-02
 -1.2702922e-02
  6.5427446e-03
 -1.7312968e+00
 -5.1021194e-01
  9.8359864e-03
  1.0488386e-01
 -9.4986204e-03
  6.4654112e-02
  1.7022392e-01
  2.5546712e-01
 -1.6746204e-01
  2.1127183e-02
 -2.4229433e-02
 -1.4912323e-02
  3.2020789e-02
  6.4917535e-01
  1.6691316e-02
  4.2614803e-01
  2.8690028e-01
 -5.9367679e-02
  3.0135578e-02
 -7.0515111e-02
  1.0032296e-01
  6.9109255e-01
  5.5520505e-02
 -7.1361177e-02
  1.1281042e-03
 -1.5853648e-01
  1.0303816e-01
  4.7248207e-02
 -3.0760672e-02
 -1.2784755e-01
  1.2127807e-01
 -1.0315371e-01
  1.3497812e+00
  2.3266749e-01
  2.0073030e-02
  1.0585938e-01
  3.8204100e-03
 -1.1448003e+00
  4.5682773e-02
 -2.1668622e-02
  3.8509101e-01
 -4.9423520e-02
  6.1170422e-03
  1.5524880e-02
  1.0230835e-01
 -3.7814659e-01
  1.9131377e-01
 -8.0636835e-01
 -1.7114045e-01
  2.3800537e-01
 -1.2742679e-01
  1.6469078e-01
 -1.6323021e-02
  4.5904684e-01
 -1.1440554e-01
 -3.1857278e-02
  9.3552850e-02
  6.7815725e-03
 -2.4318027e-01
 -5.2507244e-02
  4.5215573e-02
  1.2622994e-01
  3.3730760e-01
 -1.2792363e+00
 -7.3352647e-01
  1.1058668e-01
  5.1102720e-02
 -7.1768221e-03
  4.6276502e-02
  3.0951479e-01
  2.3246078e-01
 -5.8238514e-02
  3.2234818e-02
 -1.8366459e-01
 -4.7301099e-02
  2.1801160e-01
  1.3946508e-02
 -2.7222168e-01
  2.9694042e-01
 -6.9037542e-02
 -2.0500280e-01
  3.2222828e-01
 -3.9884128e-02
 -1.6810298e-01
  1.2627962e-01
 -6.0320270e-01
 -1.1157042e-01
  5.4094903e-03
  2.1763323e-01
 -4.0103188e-01
  3.0870097e-02
 -1.1387086e-02
 -2.5273819e-02
  1.2993756e-01
 -1.1198603e-01
  1.9178014e-01
  6.3615501e-02
  2.7711335e-01
  1.3595474e-02
  5.7345133e-02
  2.7293807e-01
  5.6870568e-01
 -4.5504265e-02
  5.8660749e-02
  6.1189950e-02
 -1.9319685e-01
 -4.6742640e-02
  2.1784572e-01
 -4.4788267e-02
 -8.0098815e-02
 -1.2731844e-01
  2.1406977e-01
  6.6182017e-01
 -3.5456488e-01
  1.2728880e-01
 -1.1206063e-01
  9.2221439e-02
 -2.4145432e-02
  1.6174422e-01
  3.1552922e-02
 -1.2688877e-01
  1.1603846e-02
 -1.9493779e-02
 -4.5043740e-02
  2.5760865e-01
 -1.4265915e+00
 -1.4186376e-01
  1.4206915e-01
  7.1750998e-01
 -2.1410430e-02
  7.9994418e-02
  1.3453862e-01
  6.4837694e-02
  1.1226945e-01
 -1.3828123e-01
 -1.9840418e+00
  1.9695587e-02
  3.2822836e-02
  5.9914235e-02
  1.5109035e-01
  3.4243184e-01
 -2.2257638e+00
 -1.9150248e-01
 -1.1194311e-01
 -1.2610507e-01
 -1.0606212e-02
  1.2549302e-01
  1.0857636e-01
  5.8028650e-02
  5.2302873e-01
  5.9581276e-02
  4.8340026e-02
 -1.9160131e-01
  2.1436509e-01
 -5.9402633e-02
 -1.4714649e-02
  1.4526901e-03
  6.6109359e-01
  6.4215392e-02
 -2.8856020e-02
  2.7294853e-01
  2.8711003e-01
  6.6879704e-03
  8.3838130e-04
 -9.2570908e-02
  5.4701969e-02
  4.8995961e-02
 -6.9821879e-02
 -3.2473379e-01
  1.2250825e-01
 -9.2690021e-02
  1.1682249e-01
  5.3950571e-02
  1.1484036e+00
 -4.4207208e-02
 -1.8795323e-01
 -1.9012168e-01
 -8.3663696e-01
  4.6486720e-03
 -5.8403429e-02
  2.3036836e-02
 -2.4866831e-02
  4.3226801e-02
  1.4527943e-02
  1.1029836e+00
  8.6749494e-01
  6.6547401e-02
  2.0597842e-02
  5.5426586e-01
 -2.3593087e+00
 -1.5215117e-01
  2.2368537e-01
 -7.2792478e-02
  1.5764196e-01
 -1.2955031e-01
  2.8555105e-02
  3.6222141e-02
  4.3034717e-02
 -9.9456282e-03
  2.7191902e-03
 -8.5395768e-02
  1.5551639e-02
 -1.8907769e-02
 -2.0703760e-01
  4.2765850e-01
  4.1619688e-01
  2.1835949e-01
  1.2465956e-01
  4.5517361e-01
  4.8740450e-01
 -2.6979243e-02
  3.4532502e-02
  8.1734098e-02
  1.5264848e-02
  4.4397790e-02
  4.3105397e-02
 -2.5368381e-02
  3.0298677e-01
  5.2433915e-02
 -5.6774028e-02
 -1.0977197e-01
  9.3658268e-03
  2.7496403e-02
 -5.2754376e-03
 -4.9605612e-02
 -3.1197038e-01
  1.2461746e-01
 -2.1577424e-01
 -2.5056291e-02
 -6.3092791e-02
  7.5980604e-02
 -1.0624389e-01
 -4.8550677e-02
 -5.0236690e-01
 -5.7566579e-02
 -1.7767062e-02
  6.6633068e-02
 -8.5997629e-01
 -1.0917264e+00
  1.2870875e-01
 -1.5834768e-01
 -1.2949304e-01
  4.6157528e-02
 -4.9705569e-02
 -1.1081102e-01
 -2.0486259e-01
 -1.0758279e-02
 -1.0835026e-01
  4.9184244e-02
  3.3756562e-02
  6.9488265e-02
  1.7514277e-02
  6.1904347e-01
 -1.1288592e+00
 -4.1586947e-02
  4.7119257e-01
  1.2612127e-01
 -1.4837556e-01
  4.1116070e-02
 -6.9068730e-02
 -1.6605081e-02
  3.6119846e-01
 -7.4149133e-03
 -5.1777591e-03
  2.1054891e-01
  6.1051857e-01
 -1.6687943e-02
 -6.2244996e-02
  1.6664760e-01
  8.4240371e-01
  2.4267884e-01
  2.1512304e-01
  3.3703369e-01
  8.7641738e-02
  8.4560558e-02
 -5.7089567e-02
 -3.8499378e-02
  5.5633473e-01
  1.3570665e-01
  1.2284517e-01
  1.2476785e-01
 -5.5173900e-02
  9.6979044e-02
 -1.0232282e-01
  2.1008055e-03
  4.2075381e-01
 -1.4879994e-01
  3.9092097e-02
 -8.4780559e-02
 -8.9780194e-01
 -8.0860779e-02
 -4.9055848e-02
  1.1927153e-01
 -1.3197701e+00
  1.3805575e-03
 -1.8350653e-02
  4.6624041e-01
 -2.6945087e-01
  4.6742283e-02
 -1.0952768e-01
 -1.3390436e-02
 -3.9496657e-02
  6.8606213e-02
  2.0067519e-01
 -2.5211340e-01
 -6.3547093e-01
 -3.1727720e-03
  1.6897216e-02
 -6.2069851e-03
  8.4243357e-01
 -2.1462921e-02
 -6.9814883e-02
 -1.9201404e-01
  1.2338958e-01
  2.1468984e-02
 -9.5124971e-03
  4.6469796e-01
 -9.5339793e-01
  2.4959527e-01
 -7.2260417e-02
  1.1657881e-01
  2.9118359e-01
  5.2790797e-01
 -8.5690595e-02
  2.5931811e-01
 -1.9026284e-01
  2.0131346e-02
 -1.2574835e+00
 -3.0758917e-01
 -2.7397630e+00
 -9.3936437e-01
  4.8425861e-02
  8.5618971e-03
  1.3276610e-01
 -3.1896788e-01
  3.9609370e-01
  7.5336337e-01
 -2.2775434e-02
  2.9453209e-02
  5.1829018e-02
  1.1427230e+00
 -3.1996319e-01
 -1.0865446e-01
  2.1868606e-01
 -7.0228159e-01
 -8.7916642e-01
 -2.5717488e-01
 -5.5100219e-03
 -4.7964215e-01
  2.2515301e-01
 -1.8609308e-02
  1.0686184e-02
  1.4417864e+00
  7.6894897e-01
  8.2855642e-02
 -5.9289354e-01
 -2.0703200e-01
  8.7367192e-02
  1.3816337e-01
  9.3601620e-01
 -1.3485984e+00
 -2.1823470e-01
 -9.5280021e-02
  3.1853688e-01
 -9.3297869e-02
 -1.0413294e-01
 -3.7989262e-02
  1.7544606e-01
 -1.3492773e-01
  4.1989991e-01
  5.5905577e-02
  1.1367837e+00
  1.8075354e-02
 -1.3849319e+00
  5.6952783e-03
 -2.8477769e+00
 -1.3487300e+00
 -2.6638138e+00
 -9.5198371e-02
 -1.4004570e-01
 -2.3156415e-01
  6.9431925e-01
 -1.0037600e-01
  7.2967160e-01
  7.7417153e-01
  6.2697971e-01
  5.7669636e-02
 -1.0807747e-01
  3.8057885e-01
  3.1065199e-01
 -1.4721808e-01
 -2.1115832e+00
 -3.6695499e+00
 -2.4789426e-01
 -3.6301449e-01
 -1.8188937e-02
 -4.8315173e-01
  1.3521520e+00
 -1.4916980e+00
 -1.7973669e-01
  4.0505838e+00
  6.9154002e-02
  1.1112259e-01
 -4.1575873e-01
  1.2552100e+00
 -2.4210316e-01
  7.0095181e-02
  2.3124382e+00
 -4.6883199e-01
  9.3322806e-02
  5.1320193e-04
 -7.9324981e-03
  6.6769993e-01
 -6.5075928e-01
 -9.0681069e-02
 -8.1168652e-01
 -2.7583733e-02
  4.1176668e-01
  9.8718655e-01
  9.8600549e-01
  1.6448714e-01
 -8.8972634e-01
  5.1698390e-02
 -2.4818183e-01
  3.4829602e-02
 -5.7430440e-01
  4.3896660e-02
 -6.8487108e-02
 -9.9462159e-02
  7.0635013e-02
  2.1024895e-01
  3.0365047e+00
  4.0860349e-01
  1.5949055e+00
  2.4196351e-01
 -4.8583731e-01
 -1.3629825e+00
  1.2358885e-01
 -7.3666158e-03
 -2.1651025e+00
  4.1076045e-02
 -3.5816872e-01
 -9.9642187e-02
 -1.8605606e-01
 -7.7001512e-01
  1.7117678e+00
 -6.1000508e-01
  1.5173056e+00
  3.9748371e-02
 -6.0217631e-01
 -6.2376207e-01
  9.4261533e-01
  5.0676823e-01
  2.9894176e-01
 -4.2797647e-02
 -4.0444255e+00
 -5.9398401e-01
 -1.5030601e+00
 -4.2658117e-01
 -2.0463603e-02
  3.1802607e-01
 -2.0836158e-02
 -2.5072241e+00
 -7.8434896e-01
  4.3035820e-01
  4.2921585e-01
  5.0967622e-01
 -8.5857964e-01
  2.0567198e+00
 -4.2377940e-01
  1.6030864e-04
 -9.0352374e-01
 -3.3997151e-01
 -1.7472800e+00
 -5.0923711e-01
  1.1352028e-02
  8.8368520e-02
 -1.2110680e-01
  1.2813040e-02
 -1.1677842e-02
 -9.5957369e-01
  6.5409511e-01
  5.9864875e-02
 -5.3853905e-01
  1.2684507e+00
 -3.5533151e-01
 -1.4089306e-01
 -1.4408542e+00
  3.2939693e-01
 -1.0487072e+00
 -9.1003887e-02
 -3.0520111e-01
 -4.6957758e-01
  2.8416947e-01
  1.3417724e+00
  2.0191000e+00
  5.1897466e-01
 -3.9136896e-01
  2.3693167e-02
  2.8641099e-01
  2.3378198e-01
  2.3450859e-02
  1.5982665e-01
  2.3845752e-01
 -3.1701678e-01
 -1.0397376e+00
  3.9569092e-01
  1.4942171e-03
 -8.2357436e-01
  1.2589010e+00
 -1.3172976e-02
  9.7013569e-01
  4.1275509e-02
  6.6959953e-01
  8.4349819e-02
  2.7013573e-01
 -2.4383159e-01
 -2.7872077e-01
 -9.6928757e-03
 -9.2687517e-01
  1.7999505e-01
 -3.1384042e-01
 -1.5588677e-01
 -1.0715592e-01
  5.0611842e-02
  4.7949257e-01
 -1.6686196e+00
 -6.6756241e-02
  6.7046231e-01
 -2.6374545e-02
 -7.4699469e-02
 -1.9436151e+00
  3.4954423e-01
  4.0810969e-02
 -8.4835738e-03
 -2.6175585e-02
  1.8409271e+00
 -1.1392096e+00
 -9.5807964e-01
 -7.3929116e-02
  2.4644239e-01
 -7.1092516e-01
  2.1491687e+00
  1.6951014e+00
 -4.5960394e-01
 -2.0869585e-02
 -1.7549468e-02
 -3.1434318e-01
  1.6227606e-01
  1.5465207e-01
 -8.3388671e-02
 -1.2648153e-01
  8.8751584e-01
 -2.9337230e-01
 -1.5519902e+00
 -1.1876951e-01
  1.5972435e+00
 -1.2420180e+00
 -6.0921961e-01
  8.9435822e-01
 -6.5051608e-02
 -9.5595837e-02
  1.1357662e-01
  2.7106365e-02
  1.1738958e-01
  8.7527581e-02
 -3.2072879e-02
 -1.7005274e-01
 -1.0864718e+00
  4.3691974e-02
  1.1303536e-01
 -4.4967536e-02
 -1.3118373e-01
 -8.0724262e-02
 -1.1852213e+00
 -3.0167892e+00
 -6.9246501e-01
  2.8927821e-01
  2.7478543e-01
 -7.4671161e-01
  1.6323058e-01
  2.4055947e-02
  1.1272442e-01
 -2.5580533e+00
  1.0453855e-01
 -2.0851681e+00
 -1.2524407e+00
 -1.2492766e-02
 -1.1895381e+00
 -2.9143236e+00
  7.1498406e-01
 -1.4352313e+00
 -5.3378123e-01
 -3.5485327e-01
  2.6201800e-02
 -1.4486074e+00
  6.3888103e-02
  4.0412650e-02
  1.1398529e-01
 -7.0161805e-02
  2.5952687e+00
 -2.8082421e-01
 -2.1445367e+00
  8.9061921e-03
  2.3460269e+00
 -1.7976075e+00
  4.9732151e+00
  5.3464260e+00
 -3.9308557e-01
  1.1286689e-02
 -7.1662828e-02
 -2.1120398e-04
 -8.0826089e-02
 -2.7081406e-01
 -1.3295874e-01
  9.5366728e-01
 -1.5110085e+00
  6.3911861e-01
  2.1447077e-01
 -2.7725590e-02
  1.8273315e+00
  5.7466364e-01
  1.4594005e+00
  1.3435633e+00
  3.4686163e-02
  1.8705258e-01
 -2.6012244e-02
 -3.8306010e-01
  2.0567055e-01
  7.6515907e-01
 -1.1532684e-01
 -2.4154456e+00
 -6.9680184e-01
 -1.6059240e+00
 -2.3118950e-01
  1.3053140e-01
 -1.3285244e+00
 -6.4449489e-01
 -1.4801537e+00
 -2.8614948e+00
  1.3704120e+00
 -1.0242834e-01
 -1.7319606e-01
 -5.5636126e-01
 -5.8500343e-03
 -1.7058298e-02
  4.3918047e-02
 -7.6670694e-01
  6.3706495e-02
 -9.0369165e-01
 -1.7220603e+00
 -1.0569381e-02
 -2.6950574e-01
 -7.3684382e-01
  7.7833849e-01
 -8.3693910e-01
 -4.3337266e-03
  7.3709363e-01
 -1.0319611e-01
 -5.4972893e-01
 -2.1680214e-02
 -7.5185813e-02
  5.6479324e-02
  9.1465026e-01
  1.6804836e+00
  7.4076802e-01
 -3.1736040e-01
 -5.9877709e-02
  3.0030188e-01
 -7.6843345e-01
  3.0060601e+00
  1.7837031e+00
  1.3303922e-01
 -6.5760337e-02
 -5.0306883e-02
 -5.7432704e-02
  5.0735727e-02
 -3.0618604e-02
 -3.0248908e-02
 -3.8935232e-01
  1.8506550e+00
 -1.9802965e-01
 -5.1631248e-01
  2.6323590e-01
  2.9588988e+00
 -1.2691277e-01
  2.8451810e+00
  2.6456881e+00
 -1.0349903e-01
 -4.8833057e-01
  2.8418206e-02
 -1.2196414e+00
 -3.0445808e-01
  9.9718338e-04
 -3.5685096e-03
 -2.8237918e-01
  1.3065202e+00
 -9.1060776e-01
 -1.0321939e+00
  1.8335597e-01
  5.7811850e-01
 -2.4946908e-02
  1.0469143e+00
  1.0834074e+00
 -7.6567009e-02
  2.2587605e-01
  5.5900656e-02
 -5.1366895e-01
  1.6633236e-01
 -6.8149939e-02
  6.8025939e-02
  1.5639435e+00
  8.1466836e-01
  3.7076730e-01
  1.7969717e-01
 -4.6501096e-02
  1.0120746e+00
 -2.3165041e-01
 -8.4324926e-02
  1.5007023e-02
 -5.4790393e-02
 -7.5742257e-01
  3.6856081e-02
 -5.5317223e-01
  4.6281170e-02
  4.1153401e-01
  1.9838665e-01
  3.1964567e+00
  3.9843586e-01
  6.0625112e-01
 -2.3980939e-01
 -9.2184424e-02
  1.6987953e-01
 -1.3445282e-01
 -2.5105757e-01
 -4.8772854e-01
  1.0296664e-01
  2.7022049e+00
 -1.0001349e-01
 -5.0757957e-01
  4.3109581e-01
 -1.5051611e-01
 -3.0373847e-02
  8.0940247e-01
  2.9534638e+00
  8.2035832e-02
  1.5769904e+00
  9.8645896e-02
  8.9409387e-01
  1.2376255e+00
 -2.0399184e+00
 -8.9248168e-01
  4.8905084e-01
 -5.5943292e-02
 -2.3208559e-02
 -4.6479970e-01
 -9.5811439e-01
 -1.6616533e-03
  8.7758847e-02
 -6.7730479e-02
  1.5411325e+00
  1.0084310e-01
  2.7990292e-03
 -3.2878045e-02
  2.3243272e+00
 -7.1859223e-01
 -7.8424037e-01
 -2.3962245e+00
  2.4847314e-01
 -1.1529599e+00
  1.7468758e-01
  3.3444473e-01
  3.5932371e-01
 -4.1051619e-02
 -4.1564755e-02
  5.5478573e-01
  9.1867715e-01
 -2.7440002e-02
  6.0004957e-02
  1.3236058e-01
 -7.8258038e-01
  1.9732784e-02
  7.1733375e-03
  2.0242136e-02
 -1.4111303e+00
 -3.0570707e-01
  6.8557531e-02
 -2.7260318e-01
  6.1064225e-01
 -1.1169919e-01
 -1.5812021e-03
  8.6555278e-01
  1.4330186e-01
  8.4956503e-01
  1.6650797e+00
  1.5379420e-02
 -1.6584707e+00
  1.3020881e-01
  1.2911882e+00
  5.1616282e+00
 -1.5586891e+00
  2.1543163e-01
  1.8196471e-02
 -2.1249182e+00
 -1.7155750e+00
  2.0075895e-01
 -3.0399291e-02
 -8.4881580e-01
 -1.1871918e+00
 -3.0817676e-01
 -9.1473877e-01
  1.0543215e-01
  1.9673358e+00
 -3.5075929e+00
 -1.4033828e+00
 -2.8562980e+00
  2.4522498e-02
 -5.7742870e-01
 -3.8613223e-02
  3.0619657e-01
 -1.1678425e+00
 -5.9100606e-02
 -5.5787157e-02
  1.8115025e+00
  1.5071667e+00
  1.9959576e-02
 -1.9196180e+00
 -1.4940684e+00
  1.9730353e+00
 -1.6236732e+00
 -3.3449690e+00
 -5.1804066e-01
  1.3694526e+00
  3.7888237e-03
  3.6818185e-03
 -2.3504859e-03
  1.0518049e+00
  8.2497746e-02
 -5.1805336e-02
  3.9615256e-01
  1.0417866e+00
  1.0029957e+00
  5.7815987e-01
  1.1627604e-01
 -1.6376606e+00
  2.9386303e-01
 -1.5391299e+00
 -1.0598907e+00
 -6.2757093e-01
  8.8193959e-01
 -1.7600903e-01
 -1.4652550e+00
  1.4261482e+00
  1.8322518e-01
  2.9696079e-02
 -7.1475573e-02
  1.7523968e+00
 -8.9560270e-01
  1.8402935e+00
 -2.2411139e-01
 -3.0836229e+00
 -4.7955811e-02
 -4.2799070e-02
 -1.8345482e+00
 -7.7045634e-03
 -6.6284978e-01
  7.0788585e-02
 -8.8970745e-01
 -6.7171913e-01
  3.6791717e-03
 -3.0684961e-02
 -1.3314186e+00
  6.3343219e-02
  7.0762753e-02
 -9.0301465e-03
  1.3083246e-01
 -6.1676043e-01
 -1.0993185e+00
  1.3867034e+00
  9.7030237e-02
 -6.8193263e-01
  2.6207962e+00
 -9.8715462e-02
  3.6178589e-01
 -2.6313622e+00
 -2.5278130e-01
  1.1400790e-01
  1.3203866e+00
  4.6884969e-01
  2.9537663e-01
 -5.4235119e-01
 -7.3218219e-02
 -8.7775715e-02
 -1.2866697e+00
  8.4874874e-01
 -7.2551274e-01
  5.8798617e-01
  1.7750166e-01
 -4.4356385e-01
 -1.2178823e+00
 -1.6038222e+00
 -9.0207919e-02
  1.0433371e-02
  1.7617599e+00
  2.1850577e-01
 -3.5994314e-02
  5.6661093e-01
 -1.3730964e-01
  9.6009083e-02
  2.0481702e-02
 -1.3138549e+00
 -1.2166094e+00
  1.0659617e+00
  1.2958980e-01
  4.6494707e-02
 -1.6056520e+00
 -1.1288644e-01
 -1.1836390e-01
 -1.8514644e-01
 -7.0000798e-01
  1.6769475e-01
 -4.9428621e-01
  1.5966786e+00
 -1.6529983e-02
 -2.2956346e-01
  8.3311133e-02
 -2.1765082e+00
 -2.9275405e+00
  1.2155175e+00
 -5.3025633e-01
  6.9904476e-02
 -3.1344774e-01
  6.3300157e-01
 -7.3995045e-03
  2.5059629e-02
 -4.0265301e-01
  5.2399248e-01
 -3.8396955e-02
  6.5042561e-01
 -2.8821424e-02
  3.5088971e-01
 -2.4747641e-01
 -3.6482945e-01
 -1.4581327e+00
  3.2880828e-01
  1.2465198e-02
 -7.9791516e-01
 -1.4551432e-01
  1.0670440e-01
 -1.5712842e-02
  3.2810673e-02
  3.6978445e+00
 -1.6060342e+00
  6.1955577e-01
 -1.3677713e+00
  1.1312255e-01
  1.0930222e+00
 -1.9475633e-01
 -5.1722962e-01
 -1.1148001e+00
 -5.8924854e-01
 -1.3970280e-01
  2.0646317e-02
 -9.7786814e-02
  3.9100498e-02
 -3.8244989e-02
  1.5602784e-02
  1.2243640e-01
  2.6318455e+00
  1.6114137e-01
 -2.2581239e+00
  6.2841671e-03
  1.4207567e-01
 -7.5359114e-02
 -7.9452509e-01
 -1.3213632e+00
 -8.3787248e-02
  9.6170515e-02
 -5.3903002e-01
  3.2248888e-03
  2.2319923e-01
 -4.3473262e-01
 -1.0561263e-01
 -2.7238282e-03
 -8.4844178e-01
 -5.7072675e-01
 -1.6024400e-01
  1.8981588e-04
 -1.6269546e+00
  2.9363310e-02
  3.3293482e-02
  7.1781734e-03
 -6.3478976e-01
 -2.7165221e-02
 -1.8749726e-01
 -2.6850265e-01
  1.6458723e-01
 -9.3570665e-02
 -6.2705339e-03
  2.7206373e+00
 -2.2461166e+00
  1.3312243e+00
 -1.0089626e+00
 -1.8831450e-02
 -1.0004561e+00
 -9.8013180e-01
  3.6476687e-01
 -1.4856428e+00
  1.1473308e-01
  7.0852831e-02
 -3.6305878e-02
  6.2467657e-02
 -1.7769822e-01
 -5.8376860e-02
 -2.8522432e-01
  2.7652812e+00
  1.1703837e+00
 -3.5037730e-02
 -3.7970376e+00
 -6.7290626e-03
  3.7505932e+00
  4.9871579e-02
 -1.6400253e+00
 -3.2029219e+00
 -2.8964388e+00
  1.7986064e-01
 -5.9545707e-02
  1.5762245e-02
  9.2503780e-01
 -7.9136091e-01
 -7.4196093e-02
  5.1168126e-01
  2.5546246e+00
 -3.9513755e-01
 -4.0130788e-01
 -1.8053971e-02
  2.4643841e-01
  1.0847005e+00
  4.9344590e-01
 -3.0387834e-01
 -1.6780291e+00
 -4.8513550e-01
  3.2164577e-02
 -7.8019924e-02
 -3.7036758e-02
 -1.5060589e-01
  8.7896131e-02
  1.9645479e+00
 -2.4680059e+00
  9.0025538e-01
 -2.6022518e-01
 -8.3259698e-03
  1.0208558e+00
 -1.0444995e+00
  9.6965659e-01
  3.6530295e-01
 -7.1705675e-01
  5.3673416e-01
 -2.7427363e-01
  3.6663836e-01
 -1.2942341e-01
 -2.2788559e-01
 -5.3335626e-02
  9.8427111e-01
  1.7068344e+00
  1.5212635e-02
 -2.0569368e-01
  6.0731262e-02
  1.4804169e+00
 -7.3504433e-02
 -4.3520507e-01
 -2.8718812e+00
 -2.0437120e-01
 -3.3496592e-02
 -7.1643062e-02
 -6.3954135e-03
  3.3195749e-01
 -4.7330114e-01
  1.0197589e-01
  1.8382587e+00
  1.0208907e+00
 -8.7721627e-03
 -6.4370275e-01
 -7.6107490e-03
  2.9532549e-01
 -1.3277236e-02
  1.7277738e+00
 -3.5016429e+00
  1.0071164e-01
 -1.0327528e-01
 -1.4690365e-01
  3.8404219e-02
  6.8889111e-02
 -6.1542618e-01
 -8.1934929e-02
  2.0274713e+00
  9.2614132e-01
  1.4735344e-02
 -3.2108014e+00
 -1.5677342e-01
 -5.7173175e-01
  5.1846486e-01
 -3.1885646e-02
 -1.5573685e-01
 -1.0706494e+00
  1.2259969e+00
 -2.6975144e-02
  1.1226641e-01
 -1.3034643e-01
  2.5381479e-01
 -2.4075879e-01
  1.2006947e+00
 -3.2641548e-01
  3.3649331e-01
 -1.1317691e+00
 -2.1379863e-01
 -2.7136812e-01
 -4.7511676e-01
 -2.6921606e-01
 -2.2055161e+00
 -1.6286061e+00
 -5.1168877e-01
 -3.1495094e-01
  1.3135006e-02
  1.9564606e-01
 -1.2603611e+00
 -2.4371116e-01
  1.8553758e-01
  1.1128763e+00
 -1.7863232e-01
 -9.2831641e-01
  1.6008332e-01
  2.4557610e-01
  4.9815606e-02
 -7.0170358e-02
  4.4823352e-01
 -2.2037277e+00
  1.1598400e+00
 -7.9913989e-02
 -6.5118259e-01
  4.1163757e-02
 -6.8872049e-03
 -3.0585308e-02
  1.7429510e+00
 -2.8870276e-01
 -2.6871366e-03
 -3.4470405e-02
 -2.2425739e-02
  2.7447456e-01
 -3.2351241e-01
 -2.5589931e-01
 -1.3742287e+00
 -1.2968208e+00
  2.5961006e-01
  1.5653558e-01
  1.6533759e-01
  3.8680103e-01
  6.0469019e-01
 -1.7004920e-02
  9.1652268e-01
  8.1787330e-01
  1.8561187e-01
 -5.9857494e-01
 -1.3504073e-01
 -4.4324806e-01
  3.4019262e-01
 -1.9887582e+00
 -1.3173625e+00
  2.1248593e+00
  4.6718711e-01
  2.7484158e-01
  8.3035171e-01
  1.1007243e+00
 -2.7171945e-02
  7.4702129e-02
  2.1198651e-01
 -2.0818083e-01
  1.9383419e-01
  6.0821903e-01
 -7.9076506e-02
 -1.4012867e+00
  4.9873639e-02
  7.9909628e-03
  1.7030584e-02
  1.4039513e+00
  5.2472812e-01
 -5.3551596e-02
  9.3937414e-03
 -1.5546715e+00
  1.2263633e-01
  1.0876372e-01
 -1.6694610e-01
 -1.2806487e-02
  3.6102021e-01
 -9.4522303e-03
 -1.7216353e-02
  4.6561110e-01
  7.8792162e-03
  2.3615610e-02
 -1.5095660e-01
 -7.5425249e-01
  1.8492087e+00
  7.9869622e-01
  7.9141021e-01
  4.5579374e-01
  5.1795017e-02
 -1.5477141e-02
  3.1463726e+00
  1.8545341e+00
 -2.1759454e-02
  6.3967520e-01
 -1.0946713e-01
  1.9813832e+00
 -4.3893659e-01
 -2.0277522e+00
 -2.3093297e+00
 -3.1768970e-02
  1.0770962e+00
  1.6155034e-01
  5.9088045e-01
  4.9266315e+00
  8.1940472e-02
 -2.6824516e-01
  1.1939018e+00
 -7.6526903e-02
  8.6141032e-01
  1.2614758e+00
  1.7364720e-01
 -1.3204201e+00
  1.8830940e-01
 -1.3085247e+00
 -6.9811165e-01
  1.8120359e+00
 -2.6622364e-01
 -8.5688576e-02
 -2.2551495e-01
  6.2980092e-01
  1.5102221e-01
 -4.9681298e-02
  1.2981232e+00
  3.5869621e-02
  1.5668058e-01
  1.5312555e+00
  6.8880700e-02
 -1.2147560e+00
  8.7363683e-02
 -1.0939800e-01
 -1.5853581e-01
  2.2436237e-01
  6.7470914e-01
  4.0872997e-01
  2.4264939e+00
 -9.5431603e-02
 -2.8436923e-02
  4.3811076e-03
 -2.7754751e-01
  1.1897421e+00
  1.6429707e-02
  1.4411680e-01
  8.5558355e-02
 -1.8561915e-01
 -2.0082866e-01
 -1.3269074e+00
 -2.6459506e-02
 -2.7676117e-01
 -1.4311149e-02
  6.9309757e-03
  7.0809972e-01
 -6.9450414e-01
  3.9558828e-02
  4.9735837e-02
  2.8921709e+00
  1.7709856e-01
  3.1319046e-01
 -1.2638096e+00
  2.5742723e-02
  4.2997861e-01
 -2.0493425e-01
 -2.2453325e+00
 -8.8217425e-01
  5.3099006e-01
  4.0984489e-02
  2.0802107e-01
  1.9616470e-02
  7.0392027e-02
  7.6124832e-02
  1.2823534e-01
  1.6214287e+00
 -2.6429279e+00
  2.4412658e-02
  1.9049453e+00
  1.4512078e-01
 -1.5222414e-01
  5.9710479e-01
  6.7141973e-03
 -5.1237965e-01
  1.8362112e-01
  9.3121076e-01
  2.1784586e-01
  6.7521238e-01
 -1.7978054e-01
 -2.6667183e-02
  6.1844211e-02
 -5.9950256e-01
  1.5618852e-01
  4.7595409e-01
  3.6684928e+00
  1.1010119e-01
  1.3636869e+00
  1.4843542e-02
 -6.4649451e-01
 -2.5680560e-01
  1.7427087e+00
  7.9333079e-01
  3.7328511e-01
  2.6470590e-01
  1.6609474e-01
  3.7546813e-01
 -2.0444025e-01
 -6.4718884e-01
  7.3600501e-01
 -9.0526693e-02
  1.0074830e+00
 -2.7304571e-02
 -1.2178017e-02
 -6.2660903e-01
 -1.0762976e+00
 -8.4278363e-01
  1.0566648e+00
 -1.2050274e-01
  7.0448428e-01
  2.1430498e-01
  3.2093251e-01
  1.6314875e-02
 -1.8211773e-01
  2.0783830e+00
  9.5675319e-01
  1.0039830e+00
  1.3199089e+00
  4.7214318e-02
 -2.2646526e-01
  3.4988996e-02
 -5.4562551e-01
 -1.0156130e+00
 -1.2160183e-01
  7.4728686e-01
 -1.3153376e-01
 -3.8990423e-01
  4.2889383e-02
  6.6464312e-02
 -1.3831863e-01
  7.3372605e-03
 -8.8845246e-02
  2.9762747e-02
  6.9209063e-01
 -7.9184361e-03
 -1.7235626e+00
  7.1948153e-01
 -8.1508291e-01
 -3.1917614e-01
  3.0726543e-01
  5.4128245e-03
  5.4128245e-03
  5.4128245e-03
  5.4128245e-03
  5.4128245e-03
  1.3042171e-02
  1.3042171e-02
  1.3042171e-02
  1.3042171e-02
  1.3042171e-02
  8.5267499e-03
  8.5267499e-03
  8.5267499e-03
  8.5267499e-03
  8.5267499e-03
  5.1057823e-03
  5.1057823e-03
  5.1057823e-03
  5.1057823e-03
  5.1057823e-03
  3.5130656e-03
  3.5130656e-03
  3.5130656e-03
  3.5130656e-03
  3.5130656e-03
  2.4878010e-03
  2.4878010e-03
  2.4878010e-03
  2.4878010e-03
  2.4878010e-03
